<?xml version="1.0"?>
<opencv_storage>
<!-- Created using Computer Vision Toolbox(tm) for MATLAB(R) -->
<!-- Version 9.8.0.1323502 (R2020a) -->
<!-- Compatible with OpenCV 3.4 -->
<cascade>
  <stageType>BOOST</stageType>
  <featureType>HOG</featureType>
  <height>41</height>
  <width>32</width>
  <stageParams>
    <boostType>GAB</boostType>
    <minHitRate>9.9500000476837158e-01</minHitRate>
    <maxFalseAlarm>5.0000000000000000e-01</maxFalseAlarm>
    <weightTrimRate>9.4999999999999996e-01</weightTrimRate>
    <maxDepth>1</maxDepth>
    <maxWeakCount>100</maxWeakCount></stageParams>
  <featureParams>
    <maxCatCount>0</maxCatCount>
    <featSize>36</featSize></featureParams>
  <stageNum>9</stageNum>
  <stages>
    <!-- stage 0 -->
    <_>
      <maxWeakCount>2</maxWeakCount>
      <stageThreshold>-1.9219660758972168e-01</stageThreshold>
      <weakClassifiers>
        <_>
          <internalNodes>
            0 -1 11 3.2764159142971039e-02</internalNodes>
          <leafValues>
            -9.2307692766189575e-01 8.4615385532379150e-01</leafValues></_>
        <_>
          <internalNodes>
            0 -1 7 3.0972603708505630e-02</internalNodes>
          <leafValues>
            7.3088032007217407e-01 -1.</leafValues></_></weakClassifiers></_>
    <!-- stage 1 -->
    <_>
      <maxWeakCount>2</maxWeakCount>
      <stageThreshold>-3.2166638970375061e-01</stageThreshold>
      <weakClassifiers>
        <_>
          <internalNodes>
            0 -1 2 2.6863735169172287e-02</internalNodes>
          <leafValues>
            -9.1666668653488159e-01 6.0000002384185791e-01</leafValues></_>
        <_>
          <internalNodes>
            0 -1 16 3.0672870576381683e-02</internalNodes>
          <leafValues>
            -9.2166638374328613e-01 7.5362068414688110e-01</leafValues></_></weakClassifiers></_>
    <!-- stage 2 -->
    <_>
      <maxWeakCount>2</maxWeakCount>
      <stageThreshold>1.4285714924335480e-01</stageThreshold>
      <weakClassifiers>
        <_>
          <internalNodes>
            0 -1 5 3.2915145158767700e-02</internalNodes>
          <leafValues>
            -8.5714286565780640e-01 1.</leafValues></_>
        <_>
          <internalNodes>
            0 -1 3 6.4551122486591339e-02</internalNodes>
          <leafValues>
            -8.1814152002334595e-01 1.</leafValues></_></weakClassifiers></_>
    <!-- stage 3 -->
    <_>
      <maxWeakCount>2</maxWeakCount>
      <stageThreshold>-2.1007373929023743e-01</stageThreshold>
      <weakClassifiers>
        <_>
          <internalNodes>
            0 -1 1 4.1207127273082733e-02</internalNodes>
          <leafValues>
            -9.2000001668930054e-01 7.1428573131561279e-01</leafValues></_>
        <_>
          <internalNodes>
            0 -1 15 1.6877043992280960e-02</internalNodes>
          <leafValues>
            -9.2435944080352783e-01 7.3694550991058350e-01</leafValues></_></weakClassifiers></_>
    <!-- stage 4 -->
    <_>
      <maxWeakCount>1</maxWeakCount>
      <stageThreshold>6.2500000000000000e-01</stageThreshold>
      <weakClassifiers>
        <_>
          <internalNodes>
            0 -1 10 1.0338380932807922e-02</internalNodes>
          <leafValues>
            -1. 6.2500000000000000e-01</leafValues></_></weakClassifiers></_>
    <!-- stage 5 -->
    <_>
      <maxWeakCount>2</maxWeakCount>
      <stageThreshold>-2.7864512801170349e-01</stageThreshold>
      <weakClassifiers>
        <_>
          <internalNodes>
            0 -1 8 2.2681245580315590e-02</internalNodes>
          <leafValues>
            -9.1304349899291992e-01 5.0000000000000000e-01</leafValues></_>
        <_>
          <internalNodes>
            0 -1 0 2.9235929250717163e-02</internalNodes>
          <leafValues>
            -7.7864515781402588e-01 8.1661671400070190e-01</leafValues></_></weakClassifiers></_>
    <!-- stage 6 -->
    <_>
      <maxWeakCount>2</maxWeakCount>
      <stageThreshold>-4.1968128085136414e-01</stageThreshold>
      <weakClassifiers>
        <_>
          <internalNodes>
            0 -1 9 3.3144712448120117e-02</internalNodes>
          <leafValues>
            -9.0909093618392944e-01 4.1176471114158630e-01</leafValues></_>
        <_>
          <internalNodes>
            0 -1 12 3.4683570265769958e-02</internalNodes>
          <leafValues>
            -8.3144599199295044e-01 6.9929146766662598e-01</leafValues></_></weakClassifiers></_>
    <!-- stage 7 -->
    <_>
      <maxWeakCount>2</maxWeakCount>
      <stageThreshold>8.1796720623970032e-02</stageThreshold>
      <weakClassifiers>
        <_>
          <internalNodes>
            0 -1 6 5.1974121481180191e-02</internalNodes>
          <leafValues>
            -7.3333334922790527e-01 1.</leafValues></_>
        <_>
          <internalNodes>
            0 -1 13 7.2534486651420593e-02</internalNodes>
          <leafValues>
            -6.7858165502548218e-01 8.1513005495071411e-01</leafValues></_></weakClassifiers></_>
    <!-- stage 8 -->
    <_>
      <maxWeakCount>2</maxWeakCount>
      <stageThreshold>-3.2917451858520508e-01</stageThreshold>
      <weakClassifiers>
        <_>
          <internalNodes>
            0 -1 14 2.7172978967428207e-02</internalNodes>
          <leafValues>
            -7.8571426868438721e-01 8.1818181276321411e-01</leafValues></_>
        <_>
          <internalNodes>
            0 -1 4 1.7604006454348564e-02</internalNodes>
          <leafValues>
            -1. 4.5653975009918213e-01</leafValues></_></weakClassifiers></_></stages>
  <features>
    <_>
      <rect>
        0 16 8 8 2</rect></_>
    <_>
      <rect>
        4 24 8 8 24</rect></_>
    <_>
      <rect>
        12 16 8 8 12</rect></_>
    <_>
      <rect>
        12 24 8 8 28</rect></_>
    <_>
      <rect>
        16 4 8 8 30</rect></_>
    <_>
      <rect>
        16 16 8 8 27</rect></_>
    <_>
      <rect>
        16 24 8 8 17</rect></_>
    <_>
      <rect>
        0 0 8 16 35</rect></_>
    <_>
      <rect>
        0 4 8 16 24</rect></_>
    <_>
      <rect>
        8 4 8 16 14</rect></_>
    <_>
      <rect>
        12 4 8 16 7</rect></_>
    <_>
      <rect>
        12 8 8 16 12</rect></_>
    <_>
      <rect>
        16 4 8 16 28</rect></_>
    <_>
      <rect>
        16 8 8 16 28</rect></_>
    <_>
      <rect>
        0 0 16 16 15</rect></_>
    <_>
      <rect>
        0 0 16 16 26</rect></_>
    <_>
      <rect>
        0 4 16 16 3</rect></_></features></cascade>
</opencv_storage>
