<?xml version="1.0"?>
<opencv_storage>
<!-- Created using Computer Vision Toolbox(tm) for MATLAB(R) -->
<!-- Version 9.8.0.1323502 (R2020a) -->
<!-- Compatible with OpenCV 3.4 -->
<cascade>
  <stageType>BOOST</stageType>
  <featureType>HOG</featureType>
  <height>39</height>
  <width>32</width>
  <stageParams>
    <boostType>GAB</boostType>
    <minHitRate>9.9500000476837158e-01</minHitRate>
    <maxFalseAlarm>1.0000000149011612e-01</maxFalseAlarm>
    <weightTrimRate>9.4999999999999996e-01</weightTrimRate>
    <maxDepth>1</maxDepth>
    <maxWeakCount>100</maxWeakCount></stageParams>
  <featureParams>
    <maxCatCount>0</maxCatCount>
    <featSize>36</featSize></featureParams>
  <stageNum>8</stageNum>
  <stages>
    <!-- stage 0 -->
    <_>
      <maxWeakCount>11</maxWeakCount>
      <stageThreshold>-8.1363523006439209e-01</stageThreshold>
      <weakClassifiers>
        <_>
          <internalNodes>
            0 -1 114 4.8113800585269928e-02</internalNodes>
          <leafValues>
            -8.0504202842712402e-01 5.6050956249237061e-01</leafValues></_>
        <_>
          <internalNodes>
            0 -1 24 5.4744243621826172e-02</internalNodes>
          <leafValues>
            -6.7369055747985840e-01 5.8975541591644287e-01</leafValues></_>
        <_>
          <internalNodes>
            0 -1 196 9.7580254077911377e-03</internalNodes>
          <leafValues>
            -8.8176834583282471e-01 3.0750173330307007e-01</leafValues></_>
        <_>
          <internalNodes>
            0 -1 110 2.1339796483516693e-02</internalNodes>
          <leafValues>
            -5.4669237136840820e-01 4.2185440659523010e-01</leafValues></_>
        <_>
          <internalNodes>
            0 -1 134 3.0849434435367584e-02</internalNodes>
          <leafValues>
            -6.3363510370254517e-01 4.5951864123344421e-01</leafValues></_>
        <_>
          <internalNodes>
            0 -1 116 2.2358857095241547e-02</internalNodes>
          <leafValues>
            -4.9492233991622925e-01 3.9697325229644775e-01</leafValues></_>
        <_>
          <internalNodes>
            0 -1 115 1.1997994966804981e-02</internalNodes>
          <leafValues>
            -6.3584774732589722e-01 3.2794919610023499e-01</leafValues></_>
        <_>
          <internalNodes>
            0 -1 201 2.5173675268888474e-02</internalNodes>
          <leafValues>
            -8.5373502969741821e-01 2.4041196703910828e-01</leafValues></_>
        <_>
          <internalNodes>
            0 -1 157 5.7595372200012207e-02</internalNodes>
          <leafValues>
            -2.9970258474349976e-01 7.4524325132369995e-01</leafValues></_>
        <_>
          <internalNodes>
            0 -1 155 1.0453632101416588e-02</internalNodes>
          <leafValues>
            -5.2549421787261963e-01 3.0842202901840210e-01</leafValues></_>
        <_>
          <internalNodes>
            0 -1 133 2.6311311870813370e-02</internalNodes>
          <leafValues>
            -5.3302282094955444e-01 3.6261108517646790e-01</leafValues></_></weakClassifiers></_>
    <!-- stage 1 -->
    <_>
      <maxWeakCount>23</maxWeakCount>
      <stageThreshold>-6.8286478519439697e-01</stageThreshold>
      <weakClassifiers>
        <_>
          <internalNodes>
            0 -1 24 8.1474334001541138e-02</internalNodes>
          <leafValues>
            -6.8881118297576904e-01 2.7002966403961182e-01</leafValues></_>
        <_>
          <internalNodes>
            0 -1 189 5.2112564444541931e-02</internalNodes>
          <leafValues>
            -4.2928001284599304e-01 3.6083969473838806e-01</leafValues></_>
        <_>
          <internalNodes>
            0 -1 173 7.7445425093173981e-02</internalNodes>
          <leafValues>
            1.7210876941680908e-01 -8.1298702955245972e-01</leafValues></_>
        <_>
          <internalNodes>
            0 -1 110 7.7869608998298645e-02</internalNodes>
          <leafValues>
            -1.9700159132480621e-01 7.1546512842178345e-01</leafValues></_>
        <_>
          <internalNodes>
            0 -1 196 2.4121325463056564e-02</internalNodes>
          <leafValues>
            -3.3393168449401855e-01 3.9354363083839417e-01</leafValues></_>
        <_>
          <internalNodes>
            0 -1 141 2.4674490094184875e-02</internalNodes>
          <leafValues>
            -5.5099254846572876e-01 2.9766762256622314e-01</leafValues></_>
        <_>
          <internalNodes>
            0 -1 25 1.6782883554697037e-02</internalNodes>
          <leafValues>
            -4.0060240030288696e-01 3.0665034055709839e-01</leafValues></_>
        <_>
          <internalNodes>
            0 -1 163 6.2477502971887589e-02</internalNodes>
          <leafValues>
            1.8902070820331573e-01 -6.5418660640716553e-01</leafValues></_>
        <_>
          <internalNodes>
            0 -1 82 8.0228988081216812e-03</internalNodes>
          <leafValues>
            3.9511445164680481e-01 -3.2606518268585205e-01</leafValues></_>
        <_>
          <internalNodes>
            0 -1 189 2.1868478506803513e-02</internalNodes>
          <leafValues>
            -6.3248002529144287e-01 2.0403468608856201e-01</leafValues></_>
        <_>
          <internalNodes>
            0 -1 167 1.7566263675689697e-02</internalNodes>
          <leafValues>
            -7.4524003267288208e-01 1.4043928682804108e-01</leafValues></_>
        <_>
          <internalNodes>
            0 -1 24 3.1950220465660095e-02</internalNodes>
          <leafValues>
            -4.8730212450027466e-01 2.2868405282497406e-01</leafValues></_>
        <_>
          <internalNodes>
            0 -1 33 4.4999797828495502e-03</internalNodes>
          <leafValues>
            -6.1663556098937988e-01 2.1893109381198883e-01</leafValues></_>
        <_>
          <internalNodes>
            0 -1 170 4.8888474702835083e-03</internalNodes>
          <leafValues>
            -9.7267109155654907e-01 1.0391241312026978e-01</leafValues></_>
        <_>
          <internalNodes>
            0 -1 121 1.1383683420717716e-02</internalNodes>
          <leafValues>
            2.4055139720439911e-01 -4.3771377205848694e-01</leafValues></_>
        <_>
          <internalNodes>
            0 -1 174 8.4553919732570648e-02</internalNodes>
          <leafValues>
            1.1951405555009842e-01 -7.6006484031677246e-01</leafValues></_>
        <_>
          <internalNodes>
            0 -1 158 1.9848471507430077e-02</internalNodes>
          <leafValues>
            -3.4216564893722534e-01 2.9041185975074768e-01</leafValues></_>
        <_>
          <internalNodes>
            0 -1 104 1.1912297457456589e-02</internalNodes>
          <leafValues>
            -3.8659060001373291e-01 2.6489511132240295e-01</leafValues></_>
        <_>
          <internalNodes>
            0 -1 13 1.6423705965280533e-02</internalNodes>
          <leafValues>
            -3.1036743521690369e-01 2.9853367805480957e-01</leafValues></_>
        <_>
          <internalNodes>
            0 -1 74 1.1627169325947762e-02</internalNodes>
          <leafValues>
            3.9401996135711670e-01 -2.4864792823791504e-01</leafValues></_>
        <_>
          <internalNodes>
            0 -1 123 2.0422313362360001e-02</internalNodes>
          <leafValues>
            -4.5713916420936584e-01 2.1093837916851044e-01</leafValues></_>
        <_>
          <internalNodes>
            0 -1 55 6.8132672458887100e-03</internalNodes>
          <leafValues>
            -5.6346523761749268e-01 1.5425540506839752e-01</leafValues></_>
        <_>
          <internalNodes>
            0 -1 171 9.8400432616472244e-03</internalNodes>
          <leafValues>
            -5.6417995691299438e-01 1.8962781131267548e-01</leafValues></_></weakClassifiers></_>
    <!-- stage 2 -->
    <_>
      <maxWeakCount>36</maxWeakCount>
      <stageThreshold>-7.2171509265899658e-01</stageThreshold>
      <weakClassifiers>
        <_>
          <internalNodes>
            0 -1 24 1.2377336621284485e-01</internalNodes>
          <leafValues>
            -5.6886225938796997e-01 3.1950208544731140e-01</leafValues></_>
        <_>
          <internalNodes>
            0 -1 114 4.0401406586170197e-02</internalNodes>
          <leafValues>
            -5.8099651336669922e-01 1.6832914948463440e-01</leafValues></_>
        <_>
          <internalNodes>
            0 -1 142 5.6675754487514496e-02</internalNodes>
          <leafValues>
            -2.9479283094406128e-01 3.7347814440727234e-01</leafValues></_>
        <_>
          <internalNodes>
            0 -1 153 1.1533352546393871e-02</internalNodes>
          <leafValues>
            -7.3192888498306274e-01 1.2310629338026047e-01</leafValues></_>
        <_>
          <internalNodes>
            0 -1 91 2.3592073470354080e-02</internalNodes>
          <leafValues>
            -2.8114080429077148e-01 3.1592580676078796e-01</leafValues></_>
        <_>
          <internalNodes>
            0 -1 190 2.8023645281791687e-02</internalNodes>
          <leafValues>
            2.0501531660556793e-01 -4.6914452314376831e-01</leafValues></_>
        <_>
          <internalNodes>
            0 -1 24 2.7820233255624771e-02</internalNodes>
          <leafValues>
            -5.2597397565841675e-01 9.9075034260749817e-02</leafValues></_>
        <_>
          <internalNodes>
            0 -1 126 1.1530622839927673e-02</internalNodes>
          <leafValues>
            2.6799669861793518e-01 -2.8984719514846802e-01</leafValues></_>
        <_>
          <internalNodes>
            0 -1 202 1.1831849813461304e-02</internalNodes>
          <leafValues>
            -7.3710054159164429e-01 9.8227776587009430e-02</leafValues></_>
        <_>
          <internalNodes>
            0 -1 198 3.3104186877608299e-03</internalNodes>
          <leafValues>
            -6.9340848922729492e-01 1.0037213563919067e-01</leafValues></_>
        <_>
          <internalNodes>
            0 -1 40 1.3994560576975346e-02</internalNodes>
          <leafValues>
            1.6291239857673645e-01 -4.1026166081428528e-01</leafValues></_>
        <_>
          <internalNodes>
            0 -1 146 3.8192845880985260e-02</internalNodes>
          <leafValues>
            -2.3545736074447632e-01 3.1489431858062744e-01</leafValues></_>
        <_>
          <internalNodes>
            0 -1 156 3.2332194969058037e-03</internalNodes>
          <leafValues>
            5.0679075717926025e-01 -1.5293882787227631e-01</leafValues></_>
        <_>
          <internalNodes>
            0 -1 182 3.8102078251540661e-03</internalNodes>
          <leafValues>
            -6.6891920566558838e-01 1.2610951066017151e-01</leafValues></_>
        <_>
          <internalNodes>
            0 -1 47 1.0125492699444294e-02</internalNodes>
          <leafValues>
            2.9789999127388000e-01 -2.3535321652889252e-01</leafValues></_>
        <_>
          <internalNodes>
            0 -1 39 6.1413675546646118e-02</internalNodes>
          <leafValues>
            -2.1813543140888214e-01 3.2546156644821167e-01</leafValues></_>
        <_>
          <internalNodes>
            0 -1 169 4.5533806085586548e-02</internalNodes>
          <leafValues>
            -1.0842154175043106e-01 6.3090372085571289e-01</leafValues></_>
        <_>
          <internalNodes>
            0 -1 132 9.1313868761062622e-03</internalNodes>
          <leafValues>
            -7.2682696580886841e-01 9.8326683044433594e-02</leafValues></_>
        <_>
          <internalNodes>
            0 -1 69 2.4537444114685059e-02</internalNodes>
          <leafValues>
            2.3841817677021027e-01 -2.6235714554786682e-01</leafValues></_>
        <_>
          <internalNodes>
            0 -1 194 1.0160026699304581e-01</internalNodes>
          <leafValues>
            6.4511954784393311e-02 -9.1933906078338623e-01</leafValues></_>
        <_>
          <internalNodes>
            0 -1 89 9.1532003134489059e-03</internalNodes>
          <leafValues>
            2.2120495140552521e-01 -2.5942268967628479e-01</leafValues></_>
        <_>
          <internalNodes>
            0 -1 14 2.5745552033185959e-02</internalNodes>
          <leafValues>
            -2.0819191634654999e-01 2.6518705487251282e-01</leafValues></_>
        <_>
          <internalNodes>
            0 -1 120 3.0559557490050793e-03</internalNodes>
          <leafValues>
            -5.8125221729278564e-01 1.0949941724538803e-01</leafValues></_>
        <_>
          <internalNodes>
            0 -1 179 1.7628666013479233e-02</internalNodes>
          <leafValues>
            3.1979867815971375e-01 -1.8050767481327057e-01</leafValues></_>
        <_>
          <internalNodes>
            0 -1 201 2.6846937835216522e-02</internalNodes>
          <leafValues>
            -5.7183617353439331e-01 9.6243053674697876e-02</leafValues></_>
        <_>
          <internalNodes>
            0 -1 0 3.4480854868888855e-02</internalNodes>
          <leafValues>
            -1.6987736523151398e-01 3.7022179365158081e-01</leafValues></_>
        <_>
          <internalNodes>
            0 -1 80 1.8295511603355408e-02</internalNodes>
          <leafValues>
            -2.9763421416282654e-01 1.8011353909969330e-01</leafValues></_>
        <_>
          <internalNodes>
            0 -1 64 8.1687167286872864e-02</internalNodes>
          <leafValues>
            -1.0101651400327682e-01 6.2012255191802979e-01</leafValues></_>
        <_>
          <internalNodes>
            0 -1 113 1.6800187528133392e-02</internalNodes>
          <leafValues>
            -4.5537683367729187e-01 1.3757579028606415e-01</leafValues></_>
        <_>
          <internalNodes>
            0 -1 20 5.5391915142536163e-02</internalNodes>
          <leafValues>
            -1.5269474685192108e-01 3.7105944752693176e-01</leafValues></_>
        <_>
          <internalNodes>
            0 -1 168 9.3023851513862610e-02</internalNodes>
          <leafValues>
            8.6357459425926208e-02 -6.2851822376251221e-01</leafValues></_>
        <_>
          <internalNodes>
            0 -1 59 5.5412328802049160e-03</internalNodes>
          <leafValues>
            3.0246400833129883e-01 -1.8706816434860229e-01</leafValues></_>
        <_>
          <internalNodes>
            0 -1 206 2.4688666686415672e-02</internalNodes>
          <leafValues>
            -2.8544378280639648e-01 2.2314989566802979e-01</leafValues></_>
        <_>
          <internalNodes>
            0 -1 162 8.0082342028617859e-03</internalNodes>
          <leafValues>
            -5.7717585563659668e-01 1.0477931797504425e-01</leafValues></_>
        <_>
          <internalNodes>
            0 -1 67 6.9151632487773895e-03</internalNodes>
          <leafValues>
            -3.8705661892890930e-01 1.4182440936565399e-01</leafValues></_>
        <_>
          <internalNodes>
            0 -1 54 1.8156476318836212e-02</internalNodes>
          <leafValues>
            1.6773980855941772e-01 -3.6055392026901245e-01</leafValues></_></weakClassifiers></_>
    <!-- stage 3 -->
    <_>
      <maxWeakCount>44</maxWeakCount>
      <stageThreshold>-7.2790306806564331e-01</stageThreshold>
      <weakClassifiers>
        <_>
          <internalNodes>
            0 -1 24 1.6945874691009521e-01</internalNodes>
          <leafValues>
            -4.8868176341056824e-01 4.0506330132484436e-01</leafValues></_>
        <_>
          <internalNodes>
            0 -1 150 1.1847046203911304e-02</internalNodes>
          <leafValues>
            3.0467423796653748e-01 -4.0409961342811584e-01</leafValues></_>
        <_>
          <internalNodes>
            0 -1 86 7.8912042081356049e-02</internalNodes>
          <leafValues>
            -2.6474291086196899e-01 3.3839631080627441e-01</leafValues></_>
        <_>
          <internalNodes>
            0 -1 11 2.1666020154953003e-02</internalNodes>
          <leafValues>
            1.2590265274047852e-01 -5.7506775856018066e-01</leafValues></_>
        <_>
          <internalNodes>
            0 -1 111 1.4351528137922287e-02</internalNodes>
          <leafValues>
            2.2203828394412994e-01 -2.8039458394050598e-01</leafValues></_>
        <_>
          <internalNodes>
            0 -1 19 4.8205170780420303e-02</internalNodes>
          <leafValues>
            -1.9759392738342285e-01 3.5210800170898438e-01</leafValues></_>
        <_>
          <internalNodes>
            0 -1 166 1.6442146152257919e-02</internalNodes>
          <leafValues>
            -4.7450461983680725e-01 1.7944476008415222e-01</leafValues></_>
        <_>
          <internalNodes>
            0 -1 200 1.0459810495376587e-02</internalNodes>
          <leafValues>
            -4.5742520689964294e-01 1.1926232278347015e-01</leafValues></_>
        <_>
          <internalNodes>
            0 -1 147 3.5473588854074478e-02</internalNodes>
          <leafValues>
            -2.3588100075721741e-01 2.2990144789218903e-01</leafValues></_>
        <_>
          <internalNodes>
            0 -1 87 2.3290209472179413e-02</internalNodes>
          <leafValues>
            2.2789835929870605e-01 -2.3386409878730774e-01</leafValues></_>
        <_>
          <internalNodes>
            0 -1 9 4.9129389226436615e-03</internalNodes>
          <leafValues>
            2.9157504439353943e-01 -1.8429835140705109e-01</leafValues></_>
        <_>
          <internalNodes>
            0 -1 139 1.3075398281216621e-02</internalNodes>
          <leafValues>
            -3.7953355908393860e-01 1.5635845065116882e-01</leafValues></_>
        <_>
          <internalNodes>
            0 -1 6 5.2720174193382263e-02</internalNodes>
          <leafValues>
            -1.4260408282279968e-01 4.3301010131835938e-01</leafValues></_>
        <_>
          <internalNodes>
            0 -1 77 5.8950155973434448e-02</internalNodes>
          <leafValues>
            -1.1692187190055847e-01 4.5990827679634094e-01</leafValues></_>
        <_>
          <internalNodes>
            0 -1 18 1.7823964357376099e-02</internalNodes>
          <leafValues>
            1.4650481939315796e-01 -3.3902719616889954e-01</leafValues></_>
        <_>
          <internalNodes>
            0 -1 207 8.3775809034705162e-03</internalNodes>
          <leafValues>
            -4.8503899574279785e-01 1.2967860698699951e-01</leafValues></_>
        <_>
          <internalNodes>
            0 -1 112 1.9073536619544029e-02</internalNodes>
          <leafValues>
            1.6703292727470398e-01 -3.1527796387672424e-01</leafValues></_>
        <_>
          <internalNodes>
            0 -1 204 1.2371824122965336e-02</internalNodes>
          <leafValues>
            -6.9377756118774414e-01 7.1675658226013184e-02</leafValues></_>
        <_>
          <internalNodes>
            0 -1 31 7.6383356936275959e-03</internalNodes>
          <leafValues>
            -7.6766115427017212e-01 5.6857027113437653e-02</leafValues></_>
        <_>
          <internalNodes>
            0 -1 161 7.3466442525386810e-02</internalNodes>
          <leafValues>
            5.1640864461660385e-02 -7.1956074237823486e-01</leafValues></_>
        <_>
          <internalNodes>
            0 -1 96 1.1868942528963089e-02</internalNodes>
          <leafValues>
            3.4926632046699524e-01 -1.4826515316963196e-01</leafValues></_>
        <_>
          <internalNodes>
            0 -1 197 5.2572108805179596e-02</internalNodes>
          <leafValues>
            7.4988305568695068e-02 -8.4366679191589355e-01</leafValues></_>
        <_>
          <internalNodes>
            0 -1 76 1.2914030253887177e-01</internalNodes>
          <leafValues>
            -1.0616704076528549e-01 5.5600613355636597e-01</leafValues></_>
        <_>
          <internalNodes>
            0 -1 200 2.3685235530138016e-02</internalNodes>
          <leafValues>
            -1.8563233315944672e-01 2.4264262616634369e-01</leafValues></_>
        <_>
          <internalNodes>
            0 -1 78 8.4154549986124039e-03</internalNodes>
          <leafValues>
            3.3347052335739136e-01 -1.6281424462795258e-01</leafValues></_>
        <_>
          <internalNodes>
            0 -1 1 3.9376266300678253e-02</internalNodes>
          <leafValues>
            -1.4176335930824280e-01 3.4674781560897827e-01</leafValues></_>
        <_>
          <internalNodes>
            0 -1 130 3.6673441529273987e-02</internalNodes>
          <leafValues>
            -3.4057220816612244e-01 1.5530589222908020e-01</leafValues></_>
        <_>
          <internalNodes>
            0 -1 199 1.9468210637569427e-02</internalNodes>
          <leafValues>
            -2.5639063119888306e-01 2.4675239622592926e-01</leafValues></_>
        <_>
          <internalNodes>
            0 -1 45 8.8419951498508453e-03</internalNodes>
          <leafValues>
            4.0160921216011047e-01 -1.4956171810626984e-01</leafValues></_>
        <_>
          <internalNodes>
            0 -1 106 5.8922171592712402e-03</internalNodes>
          <leafValues>
            3.3084273338317871e-01 -1.6546842455863953e-01</leafValues></_>
        <_>
          <internalNodes>
            0 -1 93 2.9916673898696899e-02</internalNodes>
          <leafValues>
            -1.8968740105628967e-01 2.8645384311676025e-01</leafValues></_>
        <_>
          <internalNodes>
            0 -1 125 3.5440146923065186e-02</internalNodes>
          <leafValues>
            1.0864244401454926e-01 -5.4337930679321289e-01</leafValues></_>
        <_>
          <internalNodes>
            0 -1 108 7.2264912887476385e-05</internalNodes>
          <leafValues>
            -7.1549391746520996e-01 5.9758447110652924e-02</leafValues></_>
        <_>
          <internalNodes>
            0 -1 203 1.8772656098008156e-02</internalNodes>
          <leafValues>
            -2.9348590970039368e-01 1.4936968684196472e-01</leafValues></_>
        <_>
          <internalNodes>
            0 -1 206 7.4815275147557259e-03</internalNodes>
          <leafValues>
            -5.9256577491760254e-01 8.1596985459327698e-02</leafValues></_>
        <_>
          <internalNodes>
            0 -1 114 9.0075597167015076e-02</internalNodes>
          <leafValues>
            -2.0426928997039795e-01 2.7122327685356140e-01</leafValues></_>
        <_>
          <internalNodes>
            0 -1 184 1.4152245596051216e-02</internalNodes>
          <leafValues>
            2.5390025973320007e-01 -2.2006188333034515e-01</leafValues></_>
        <_>
          <internalNodes>
            0 -1 28 7.8700529411435127e-03</internalNodes>
          <leafValues>
            5.4811948537826538e-01 -9.1394752264022827e-02</leafValues></_>
        <_>
          <internalNodes>
            0 -1 51 8.8831916218623519e-04</internalNodes>
          <leafValues>
            -6.6863059997558594e-01 8.6172044277191162e-02</leafValues></_>
        <_>
          <internalNodes>
            0 -1 24 7.5936257839202881e-02</internalNodes>
          <leafValues>
            -2.3871351778507233e-01 2.1321159601211548e-01</leafValues></_>
        <_>
          <internalNodes>
            0 -1 71 5.7611554861068726e-02</internalNodes>
          <leafValues>
            -7.5206257402896881e-02 6.6926026344299316e-01</leafValues></_>
        <_>
          <internalNodes>
            0 -1 7 9.1201663017272949e-03</internalNodes>
          <leafValues>
            -2.9530113935470581e-01 1.7028264701366425e-01</leafValues></_>
        <_>
          <internalNodes>
            0 -1 29 1.3892371207475662e-02</internalNodes>
          <leafValues>
            2.0801445841789246e-01 -2.9906442761421204e-01</leafValues></_>
        <_>
          <internalNodes>
            0 -1 100 2.8191353194415569e-03</internalNodes>
          <leafValues>
            4.2294955253601074e-01 -1.2926681339740753e-01</leafValues></_></weakClassifiers></_>
    <!-- stage 4 -->
    <_>
      <maxWeakCount>49</maxWeakCount>
      <stageThreshold>-3.9641332626342773e-01</stageThreshold>
      <weakClassifiers>
        <_>
          <internalNodes>
            0 -1 114 1.5423443913459778e-01</internalNodes>
          <leafValues>
            -2.8652751445770264e-01 3.6094674468040466e-01</leafValues></_>
        <_>
          <internalNodes>
            0 -1 205 3.2630451023578644e-02</internalNodes>
          <leafValues>
            -3.9247030019760132e-01 1.7595668137073517e-01</leafValues></_>
        <_>
          <internalNodes>
            0 -1 158 4.1117079555988312e-02</internalNodes>
          <leafValues>
            -1.9099658727645874e-01 3.4141972661018372e-01</leafValues></_>
        <_>
          <internalNodes>
            0 -1 24 5.4318670183420181e-02</internalNodes>
          <leafValues>
            -3.5320502519607544e-01 1.4985816180706024e-01</leafValues></_>
        <_>
          <internalNodes>
            0 -1 148 3.9331972599029541e-02</internalNodes>
          <leafValues>
            -1.4806351065635681e-01 3.1827798485755920e-01</leafValues></_>
        <_>
          <internalNodes>
            0 -1 32 1.5633374452590942e-02</internalNodes>
          <leafValues>
            -2.8720623254776001e-01 1.9148103892803192e-01</leafValues></_>
        <_>
          <internalNodes>
            0 -1 129 4.5178972184658051e-02</internalNodes>
          <leafValues>
            -8.7164022028446198e-02 4.9382925033569336e-01</leafValues></_>
        <_>
          <internalNodes>
            0 -1 189 7.3392624035477638e-03</internalNodes>
          <leafValues>
            -8.1844258308410645e-01 5.3852077573537827e-02</leafValues></_>
        <_>
          <internalNodes>
            0 -1 79 2.1275151520967484e-03</internalNodes>
          <leafValues>
            4.2997759580612183e-01 -1.1880999803543091e-01</leafValues></_>
        <_>
          <internalNodes>
            0 -1 154 2.1119561046361923e-02</internalNodes>
          <leafValues>
            -2.8110390901565552e-01 1.7231653630733490e-01</leafValues></_>
        <_>
          <internalNodes>
            0 -1 98 1.8808612367138267e-04</internalNodes>
          <leafValues>
            -9.7137838602066040e-01 3.9976552128791809e-02</leafValues></_>
        <_>
          <internalNodes>
            0 -1 144 4.5133203268051147e-02</internalNodes>
          <leafValues>
            4.0175337344408035e-02 -5.4268795251846313e-01</leafValues></_>
        <_>
          <internalNodes>
            0 -1 50 1.2834461405873299e-02</internalNodes>
          <leafValues>
            2.1227104961872101e-01 -2.4915723502635956e-01</leafValues></_>
        <_>
          <internalNodes>
            0 -1 50 6.1076126992702484e-02</internalNodes>
          <leafValues>
            -7.7855221927165985e-02 5.7216626405715942e-01</leafValues></_>
        <_>
          <internalNodes>
            0 -1 160 7.2132870554924011e-03</internalNodes>
          <leafValues>
            -5.4863274097442627e-01 1.0302624851465225e-01</leafValues></_>
        <_>
          <internalNodes>
            0 -1 4 5.3592696785926819e-02</internalNodes>
          <leafValues>
            -1.1609236896038055e-01 5.9103220701217651e-01</leafValues></_>
        <_>
          <internalNodes>
            0 -1 109 1.7707696184515953e-02</internalNodes>
          <leafValues>
            1.9317032396793365e-01 -2.6094156503677368e-01</leafValues></_>
        <_>
          <internalNodes>
            0 -1 99 2.5615694001317024e-02</internalNodes>
          <leafValues>
            -1.8613384664058685e-01 2.5279688835144043e-01</leafValues></_>
        <_>
          <internalNodes>
            0 -1 138 6.4847972244024277e-03</internalNodes>
          <leafValues>
            4.0455520153045654e-01 -1.2599982321262360e-01</leafValues></_>
        <_>
          <internalNodes>
            0 -1 3 8.5656521841883659e-03</internalNodes>
          <leafValues>
            -3.7502226233482361e-01 1.1234600096940994e-01</leafValues></_>
        <_>
          <internalNodes>
            0 -1 31 5.7169683277606964e-02</internalNodes>
          <leafValues>
            -1.2965762615203857e-01 3.0947744846343994e-01</leafValues></_>
        <_>
          <internalNodes>
            0 -1 73 3.1863909680396318e-04</internalNodes>
          <leafValues>
            -6.8622863292694092e-01 5.8585014194250107e-02</leafValues></_>
        <_>
          <internalNodes>
            0 -1 16 1.3606717810034752e-02</internalNodes>
          <leafValues>
            1.5768012404441833e-01 -2.3435176908969879e-01</leafValues></_>
        <_>
          <internalNodes>
            0 -1 208 7.6136621646583080e-03</internalNodes>
          <leafValues>
            -5.1597434282302856e-01 7.6144270598888397e-02</leafValues></_>
        <_>
          <internalNodes>
            0 -1 21 6.9754198193550110e-02</internalNodes>
          <leafValues>
            -4.5674253255128860e-02 9.2956918478012085e-01</leafValues></_>
        <_>
          <internalNodes>
            0 -1 46 9.1452582273632288e-04</internalNodes>
          <leafValues>
            -7.5813102722167969e-01 6.5022058784961700e-02</leafValues></_>
        <_>
          <internalNodes>
            0 -1 127 3.8508856669068336e-03</internalNodes>
          <leafValues>
            3.2435679435729980e-01 -1.3689963519573212e-01</leafValues></_>
        <_>
          <internalNodes>
            0 -1 66 1.5714991837739944e-02</internalNodes>
          <leafValues>
            -1.8823850154876709e-01 2.2980901598930359e-01</leafValues></_>
        <_>
          <internalNodes>
            0 -1 135 6.5397195518016815e-02</internalNodes>
          <leafValues>
            -1.0463951528072357e-01 4.7076177597045898e-01</leafValues></_>
        <_>
          <internalNodes>
            0 -1 177 2.9921067878603935e-02</internalNodes>
          <leafValues>
            -1.6990503668785095e-01 3.0106705427169800e-01</leafValues></_>
        <_>
          <internalNodes>
            0 -1 180 1.9324503839015961e-02</internalNodes>
          <leafValues>
            -1.7068862915039063e-01 2.8834152221679688e-01</leafValues></_>
        <_>
          <internalNodes>
            0 -1 57 5.0931371748447418e-02</internalNodes>
          <leafValues>
            6.1883855611085892e-02 -7.2360789775848389e-01</leafValues></_>
        <_>
          <internalNodes>
            0 -1 75 1.6964258626103401e-02</internalNodes>
          <leafValues>
            2.3849934339523315e-01 -2.0570331811904907e-01</leafValues></_>
        <_>
          <internalNodes>
            0 -1 90 6.4170183613896370e-03</internalNodes>
          <leafValues>
            2.1153341233730316e-01 -2.0118436217308044e-01</leafValues></_>
        <_>
          <internalNodes>
            0 -1 198 2.7056140825152397e-03</internalNodes>
          <leafValues>
            -6.8433499336242676e-01 6.7920319736003876e-02</leafValues></_>
        <_>
          <internalNodes>
            0 -1 37 8.9185312390327454e-03</internalNodes>
          <leafValues>
            1.8196822702884674e-01 -2.5086849927902222e-01</leafValues></_>
        <_>
          <internalNodes>
            0 -1 159 2.6447209529578686e-03</internalNodes>
          <leafValues>
            -6.6965138912200928e-01 7.0299334824085236e-02</leafValues></_>
        <_>
          <internalNodes>
            0 -1 105 2.1183130145072937e-01</internalNodes>
          <leafValues>
            -6.2943302094936371e-02 8.4636360406875610e-01</leafValues></_>
        <_>
          <internalNodes>
            0 -1 17 4.8103518784046173e-03</internalNodes>
          <leafValues>
            2.7704432606697083e-01 -1.3463668525218964e-01</leafValues></_>
        <_>
          <internalNodes>
            0 -1 107 6.9114938378334045e-03</internalNodes>
          <leafValues>
            -6.3981509208679199e-01 6.7871153354644775e-02</leafValues></_>
        <_>
          <internalNodes>
            0 -1 62 5.9792097657918930e-02</internalNodes>
          <leafValues>
            -8.7947942316532135e-02 5.1310515403747559e-01</leafValues></_>
        <_>
          <internalNodes>
            0 -1 53 9.7170295193791389e-03</internalNodes>
          <leafValues>
            -3.6043074727058411e-01 1.1505484580993652e-01</leafValues></_>
        <_>
          <internalNodes>
            0 -1 183 1.2037440203130245e-02</internalNodes>
          <leafValues>
            -2.1528235077857971e-01 2.0400007069110870e-01</leafValues></_>
        <_>
          <internalNodes>
            0 -1 101 1.5541296452283859e-02</internalNodes>
          <leafValues>
            1.5493683516979218e-01 -3.0078735947608948e-01</leafValues></_>
        <_>
          <internalNodes>
            0 -1 10 5.7674884796142578e-02</internalNodes>
          <leafValues>
            -1.1495823413133621e-01 3.9899855852127075e-01</leafValues></_>
        <_>
          <internalNodes>
            0 -1 30 5.3770066006109118e-04</internalNodes>
          <leafValues>
            -8.0369877815246582e-01 5.8938674628734589e-02</leafValues></_>
        <_>
          <internalNodes>
            0 -1 52 7.4809387326240540e-02</internalNodes>
          <leafValues>
            -1.2134853005409241e-01 4.0487807989120483e-01</leafValues></_>
        <_>
          <internalNodes>
            0 -1 88 4.5274287462234497e-02</internalNodes>
          <leafValues>
            5.7285945862531662e-02 -8.5600703954696655e-01</leafValues></_>
        <_>
          <internalNodes>
            0 -1 41 3.3359725028276443e-02</internalNodes>
          <leafValues>
            -8.2086764276027679e-02 6.3062512874603271e-01</leafValues></_></weakClassifiers></_>
    <!-- stage 5 -->
    <_>
      <maxWeakCount>28</maxWeakCount>
      <stageThreshold>6.8385213613510132e-02</stageThreshold>
      <weakClassifiers>
        <_>
          <internalNodes>
            0 -1 188 1.2938250787556171e-02</internalNodes>
          <leafValues>
            6.1133605241775513e-01 7.2164945304393768e-02</leafValues></_>
        <_>
          <internalNodes>
            0 -1 12 2.1871220320463181e-02</internalNodes>
          <leafValues>
            -3.3983048796653748e-01 2.7662095427513123e-01</leafValues></_>
        <_>
          <internalNodes>
            0 -1 149 4.8478948883712292e-03</internalNodes>
          <leafValues>
            4.0013030171394348e-01 -2.0120577514171600e-01</leafValues></_>
        <_>
          <internalNodes>
            0 -1 56 5.4243085905909538e-03</internalNodes>
          <leafValues>
            -4.2594629526138306e-01 1.7963877320289612e-01</leafValues></_>
        <_>
          <internalNodes>
            0 -1 5 1.6009854152798653e-02</internalNodes>
          <leafValues>
            -3.1940385699272156e-01 2.5651475787162781e-01</leafValues></_>
        <_>
          <internalNodes>
            0 -1 85 1.5918940771371126e-03</internalNodes>
          <leafValues>
            -6.2241649627685547e-01 1.3617509603500366e-01</leafValues></_>
        <_>
          <internalNodes>
            0 -1 15 5.3934283554553986e-02</internalNodes>
          <leafValues>
            -1.4346709847450256e-01 4.6397686004638672e-01</leafValues></_>
        <_>
          <internalNodes>
            0 -1 164 6.8857492879033089e-03</internalNodes>
          <leafValues>
            -6.9489252567291260e-01 1.0164591670036316e-01</leafValues></_>
        <_>
          <internalNodes>
            0 -1 142 9.7747564315795898e-02</internalNodes>
          <leafValues>
            -1.3896554708480835e-01 6.9483411312103271e-01</leafValues></_>
        <_>
          <internalNodes>
            0 -1 118 6.3605457544326782e-02</internalNodes>
          <leafValues>
            2.0462711155414581e-01 -3.6739212274551392e-01</leafValues></_>
        <_>
          <internalNodes>
            0 -1 22 5.5150180123746395e-03</internalNodes>
          <leafValues>
            3.4237787127494812e-01 -2.1157124638557434e-01</leafValues></_>
        <_>
          <internalNodes>
            0 -1 111 1.9135631620883942e-02</internalNodes>
          <leafValues>
            2.2959646582603455e-01 -3.3503970503807068e-01</leafValues></_>
        <_>
          <internalNodes>
            0 -1 152 4.4379968196153641e-02</internalNodes>
          <leafValues>
            1.1157809942960739e-01 -6.2712383270263672e-01</leafValues></_>
        <_>
          <internalNodes>
            0 -1 165 6.0100499540567398e-03</internalNodes>
          <leafValues>
            -6.3588351011276245e-01 1.1312563717365265e-01</leafValues></_>
        <_>
          <internalNodes>
            0 -1 26 1.9070152193307877e-02</internalNodes>
          <leafValues>
            2.6880016922950745e-01 -2.8831377625465393e-01</leafValues></_>
        <_>
          <internalNodes>
            0 -1 94 2.8266496956348419e-02</internalNodes>
          <leafValues>
            -1.9331219792366028e-01 4.5187672972679138e-01</leafValues></_>
        <_>
          <internalNodes>
            0 -1 72 5.3066271357238293e-04</internalNodes>
          <leafValues>
            -8.2722055912017822e-01 1.0109017044305801e-01</leafValues></_>
        <_>
          <internalNodes>
            0 -1 122 3.2684177160263062e-02</internalNodes>
          <leafValues>
            -2.1450021862983704e-01 2.9196146130561829e-01</leafValues></_>
        <_>
          <internalNodes>
            0 -1 172 3.9626762270927429e-02</internalNodes>
          <leafValues>
            2.3356032371520996e-01 -3.0470600724220276e-01</leafValues></_>
        <_>
          <internalNodes>
            0 -1 146 1.6952678561210632e-02</internalNodes>
          <leafValues>
            -4.4309329986572266e-01 1.6622324287891388e-01</leafValues></_>
        <_>
          <internalNodes>
            0 -1 84 1.9850775599479675e-02</internalNodes>
          <leafValues>
            2.7436989545822144e-01 -2.5037348270416260e-01</leafValues></_>
        <_>
          <internalNodes>
            0 -1 103 3.6389003507792950e-03</internalNodes>
          <leafValues>
            4.5631441473960876e-01 -1.4420008659362793e-01</leafValues></_>
        <_>
          <internalNodes>
            0 -1 175 3.8953581824898720e-03</internalNodes>
          <leafValues>
            -7.4627697467803955e-01 1.0152470320463181e-01</leafValues></_>
        <_>
          <internalNodes>
            0 -1 119 5.1220167428255081e-02</internalNodes>
          <leafValues>
            1.3103723526000977e-01 -5.0232797861099243e-01</leafValues></_>
        <_>
          <internalNodes>
            0 -1 43 7.4072182178497314e-03</internalNodes>
          <leafValues>
            4.7677728533744812e-01 -1.6219672560691833e-01</leafValues></_>
        <_>
          <internalNodes>
            0 -1 178 1.5401777811348438e-02</internalNodes>
          <leafValues>
            -4.1089233756065369e-01 1.8197485804557800e-01</leafValues></_>
        <_>
          <internalNodes>
            0 -1 23 2.5321338325738907e-02</internalNodes>
          <leafValues>
            -3.5607060790061951e-01 2.1243943274021149e-01</leafValues></_>
        <_>
          <internalNodes>
            0 -1 128 9.0784654021263123e-03</internalNodes>
          <leafValues>
            -6.7346042394638062e-01 1.1389877647161484e-01</leafValues></_></weakClassifiers></_>
    <!-- stage 6 -->
    <_>
      <maxWeakCount>24</maxWeakCount>
      <stageThreshold>6.5089814364910126e-02</stageThreshold>
      <weakClassifiers>
        <_>
          <internalNodes>
            0 -1 176 5.0168715417385101e-02</internalNodes>
          <leafValues>
            5.8918917179107666e-01 -4.0000000596046448e-01</leafValues></_>
        <_>
          <internalNodes>
            0 -1 86 6.5161056816577911e-02</internalNodes>
          <leafValues>
            -2.3411712050437927e-01 3.5321363806724548e-01</leafValues></_>
        <_>
          <internalNodes>
            0 -1 83 1.0623050853610039e-02</internalNodes>
          <leafValues>
            3.5905775427818298e-01 -2.5634932518005371e-01</leafValues></_>
        <_>
          <internalNodes>
            0 -1 81 8.1159904599189758e-02</internalNodes>
          <leafValues>
            -1.3971078395843506e-01 6.2678253650665283e-01</leafValues></_>
        <_>
          <internalNodes>
            0 -1 95 4.8152552917599678e-03</internalNodes>
          <leafValues>
            -5.1347243785858154e-01 1.6671162843704224e-01</leafValues></_>
        <_>
          <internalNodes>
            0 -1 193 4.1236169636249542e-02</internalNodes>
          <leafValues>
            -1.6254357993602753e-01 6.7539846897125244e-01</leafValues></_>
        <_>
          <internalNodes>
            0 -1 117 4.5804820954799652e-02</internalNodes>
          <leafValues>
            -9.6826456487178802e-02 7.9089087247848511e-01</leafValues></_>
        <_>
          <internalNodes>
            0 -1 186 1.2264223769307137e-02</internalNodes>
          <leafValues>
            -2.9109433293342590e-01 2.9644289612770081e-01</leafValues></_>
        <_>
          <internalNodes>
            0 -1 191 1.2080691754817963e-02</internalNodes>
          <leafValues>
            2.8789120912551880e-01 -3.1776660680770874e-01</leafValues></_>
        <_>
          <internalNodes>
            0 -1 185 1.0302530601620674e-02</internalNodes>
          <leafValues>
            4.9798387289047241e-01 -1.7602755129337311e-01</leafValues></_>
        <_>
          <internalNodes>
            0 -1 2 1.0108323767781258e-02</internalNodes>
          <leafValues>
            2.9910075664520264e-01 -2.7318215370178223e-01</leafValues></_>
        <_>
          <internalNodes>
            0 -1 63 6.2519526109099388e-03</internalNodes>
          <leafValues>
            4.8097500205039978e-01 -1.6769003868103027e-01</leafValues></_>
        <_>
          <internalNodes>
            0 -1 61 1.9833505211863667e-04</internalNodes>
          <leafValues>
            -6.5454262495040894e-01 1.4236962795257568e-01</leafValues></_>
        <_>
          <internalNodes>
            0 -1 65 1.3287632726132870e-02</internalNodes>
          <leafValues>
            4.5379292964935303e-01 -1.8874540925025940e-01</leafValues></_>
        <_>
          <internalNodes>
            0 -1 131 2.7975570410490036e-03</internalNodes>
          <leafValues>
            -1. 8.6215227842330933e-02</leafValues></_>
        <_>
          <internalNodes>
            0 -1 36 5.1328577101230621e-02</internalNodes>
          <leafValues>
            1.0674457997083664e-01 -6.3653916120529175e-01</leafValues></_>
        <_>
          <internalNodes>
            0 -1 66 2.1641667932271957e-02</internalNodes>
          <leafValues>
            -1.9204923510551453e-01 4.1042000055313110e-01</leafValues></_>
        <_>
          <internalNodes>
            0 -1 102 4.7531956806778908e-03</internalNodes>
          <leafValues>
            -7.7144569158554077e-01 1.0346011817455292e-01</leafValues></_>
        <_>
          <internalNodes>
            0 -1 124 8.7889090180397034e-02</internalNodes>
          <leafValues>
            6.4892962574958801e-02 -8.8910073041915894e-01</leafValues></_>
        <_>
          <internalNodes>
            0 -1 48 4.3703116476535797e-02</internalNodes>
          <leafValues>
            1.0019420087337494e-01 -6.3465094566345215e-01</leafValues></_>
        <_>
          <internalNodes>
            0 -1 136 3.0279096215963364e-02</internalNodes>
          <leafValues>
            1.8736417591571808e-01 -4.4814670085906982e-01</leafValues></_>
        <_>
          <internalNodes>
            0 -1 97 1.0391718707978725e-02</internalNodes>
          <leafValues>
            4.0792366862297058e-01 -2.0657758414745331e-01</leafValues></_>
        <_>
          <internalNodes>
            0 -1 35 1.4309583231806755e-02</internalNodes>
          <leafValues>
            -2.8356513381004333e-01 3.0680903792381287e-01</leafValues></_>
        <_>
          <internalNodes>
            0 -1 27 1.7978364601731300e-02</internalNodes>
          <leafValues>
            -2.0353497564792633e-01 3.9310219883918762e-01</leafValues></_></weakClassifiers></_>
    <!-- stage 7 -->
    <_>
      <maxWeakCount>25</maxWeakCount>
      <stageThreshold>-1.0338743217289448e-02</stageThreshold>
      <weakClassifiers>
        <_>
          <internalNodes>
            0 -1 143 4.3105807155370712e-02</internalNodes>
          <leafValues>
            7.1260994672775269e-01 -2.9032257199287415e-01</leafValues></_>
        <_>
          <internalNodes>
            0 -1 8 1.7187897115945816e-02</internalNodes>
          <leafValues>
            4.3824076652526855e-01 -2.8699177503585815e-01</leafValues></_>
        <_>
          <internalNodes>
            0 -1 92 4.7013677656650543e-02</internalNodes>
          <leafValues>
            -1.5638868510723114e-01 5.9721356630325317e-01</leafValues></_>
        <_>
          <internalNodes>
            0 -1 145 6.8845637142658234e-03</internalNodes>
          <leafValues>
            8.3811783790588379e-01 -1.7520411312580109e-01</leafValues></_>
        <_>
          <internalNodes>
            0 -1 151 1.0235032066702843e-02</internalNodes>
          <leafValues>
            5.6850767135620117e-01 -1.6076536476612091e-01</leafValues></_>
        <_>
          <internalNodes>
            0 -1 68 5.2187696099281311e-02</internalNodes>
          <leafValues>
            2.1771182119846344e-01 -4.7917088866233826e-01</leafValues></_>
        <_>
          <internalNodes>
            0 -1 195 3.8341909646987915e-02</internalNodes>
          <leafValues>
            -1.4662200212478638e-01 8.6950719356536865e-01</leafValues></_>
        <_>
          <internalNodes>
            0 -1 51 1.7242845147848129e-02</internalNodes>
          <leafValues>
            2.7868103981018066e-01 -3.1212413311004639e-01</leafValues></_>
        <_>
          <internalNodes>
            0 -1 187 1.6798008233308792e-02</internalNodes>
          <leafValues>
            -2.6361808180809021e-01 3.3151450753211975e-01</leafValues></_>
        <_>
          <internalNodes>
            0 -1 133 2.1446269005537033e-02</internalNodes>
          <leafValues>
            -4.5033264160156250e-01 2.1225777268409729e-01</leafValues></_>
        <_>
          <internalNodes>
            0 -1 34 2.3713208734989166e-02</internalNodes>
          <leafValues>
            1.9868078827857971e-01 -4.8451453447341919e-01</leafValues></_>
        <_>
          <internalNodes>
            0 -1 180 2.0917035639286041e-02</internalNodes>
          <leafValues>
            -2.2675454616546631e-01 4.4002673029899597e-01</leafValues></_>
        <_>
          <internalNodes>
            0 -1 70 2.1865138784050941e-02</internalNodes>
          <leafValues>
            2.6197591423988342e-01 -4.1985595226287842e-01</leafValues></_>
        <_>
          <internalNodes>
            0 -1 140 4.5875288546085358e-02</internalNodes>
          <leafValues>
            -1.8864579498767853e-01 5.4806232452392578e-01</leafValues></_>
        <_>
          <internalNodes>
            0 -1 60 1.3777662999927998e-02</internalNodes>
          <leafValues>
            2.4295555055141449e-01 -4.2903912067413330e-01</leafValues></_>
        <_>
          <internalNodes>
            0 -1 192 1.5103181358426809e-03</internalNodes>
          <leafValues>
            -8.0933201313018799e-01 1.0938944667577744e-01</leafValues></_>
        <_>
          <internalNodes>
            0 -1 206 3.4510158002376556e-02</internalNodes>
          <leafValues>
            -3.0452477931976318e-01 2.7309188246726990e-01</leafValues></_>
        <_>
          <internalNodes>
            0 -1 44 1.1249076575040817e-02</internalNodes>
          <leafValues>
            5.5524426698684692e-01 -1.7197217047214508e-01</leafValues></_>
        <_>
          <internalNodes>
            0 -1 38 5.7572182267904282e-03</internalNodes>
          <leafValues>
            4.2986860871315002e-01 -2.1391746401786804e-01</leafValues></_>
        <_>
          <internalNodes>
            0 -1 181 2.9120760038495064e-02</internalNodes>
          <leafValues>
            2.8558337688446045e-01 -3.0555531382560730e-01</leafValues></_>
        <_>
          <internalNodes>
            0 -1 49 1.5041349455714226e-02</internalNodes>
          <leafValues>
            3.0114528536796570e-01 -3.1940540671348572e-01</leafValues></_>
        <_>
          <internalNodes>
            0 -1 137 3.3419493120163679e-03</internalNodes>
          <leafValues>
            -5.8049374818801880e-01 1.6672028601169586e-01</leafValues></_>
        <_>
          <internalNodes>
            0 -1 31 6.7705817520618439e-02</internalNodes>
          <leafValues>
            -1.3909000158309937e-01 6.7712128162384033e-01</leafValues></_>
        <_>
          <internalNodes>
            0 -1 42 9.6348375082015991e-03</internalNodes>
          <leafValues>
            3.5587379336357117e-01 -2.4350507557392120e-01</leafValues></_>
        <_>
          <internalNodes>
            0 -1 58 8.2748604472726583e-04</internalNodes>
          <leafValues>
            -7.6713520288467407e-01 1.4095279574394226e-01</leafValues></_></weakClassifiers></_></stages>
  <features>
    <_>
      <rect>
        0 0 8 8 0</rect></_>
    <_>
      <rect>
        0 0 8 8 1</rect></_>
    <_>
      <rect>
        0 0 8 8 7</rect></_>
    <_>
      <rect>
        0 0 8 8 18</rect></_>
    <_>
      <rect>
        0 0 8 8 24</rect></_>
    <_>
      <rect>
        0 0 8 8 26</rect></_>
    <_>
      <rect>
        0 4 8 8 3</rect></_>
    <_>
      <rect>
        0 4 8 8 16</rect></_>
    <_>
      <rect>
        0 4 8 8 35</rect></_>
    <_>
      <rect>
        0 8 8 8 28</rect></_>
    <_>
      <rect>
        0 8 8 8 31</rect></_>
    <_>
      <rect>
        0 8 8 8 33</rect></_>
    <_>
      <rect>
        0 12 8 8 3</rect></_>
    <_>
      <rect>
        0 12 8 8 7</rect></_>
    <_>
      <rect>
        0 16 8 8 6</rect></_>
    <_>
      <rect>
        0 16 8 8 7</rect></_>
    <_>
      <rect>
        0 16 8 8 10</rect></_>
    <_>
      <rect>
        0 16 8 8 28</rect></_>
    <_>
      <rect>
        0 16 8 8 34</rect></_>
    <_>
      <rect>
        0 20 8 8 7</rect></_>
    <_>
      <rect>
        0 20 8 8 8</rect></_>
    <_>
      <rect>
        0 20 8 8 9</rect></_>
    <_>
      <rect>
        0 20 8 8 16</rect></_>
    <_>
      <rect>
        0 20 8 8 23</rect></_>
    <_>
      <rect>
        0 20 8 8 24</rect></_>
    <_>
      <rect>
        0 20 8 8 26</rect></_>
    <_>
      <rect>
        0 20 8 8 31</rect></_>
    <_>
      <rect>
        4 0 8 8 5</rect></_>
    <_>
      <rect>
        4 0 8 8 13</rect></_>
    <_>
      <rect>
        4 0 8 8 16</rect></_>
    <_>
      <rect>
        4 0 8 8 17</rect></_>
    <_>
      <rect>
        4 0 8 8 21</rect></_>
    <_>
      <rect>
        4 4 8 8 5</rect></_>
    <_>
      <rect>
        4 4 8 8 17</rect></_>
    <_>
      <rect>
        4 4 8 8 26</rect></_>
    <_>
      <rect>
        4 8 8 8 0</rect></_>
    <_>
      <rect>
        4 8 8 8 6</rect></_>
    <_>
      <rect>
        4 8 8 8 18</rect></_>
    <_>
      <rect>
        4 8 8 8 19</rect></_>
    <_>
      <rect>
        4 12 8 8 3</rect></_>
    <_>
      <rect>
        4 12 8 8 19</rect></_>
    <_>
      <rect>
        4 12 8 8 34</rect></_>
    <_>
      <rect>
        4 16 8 8 9</rect></_>
    <_>
      <rect>
        4 16 8 8 22</rect></_>
    <_>
      <rect>
        4 16 8 8 24</rect></_>
    <_>
      <rect>
        4 16 8 8 26</rect></_>
    <_>
      <rect>
        4 20 8 8 5</rect></_>
    <_>
      <rect>
        4 20 8 8 10</rect></_>
    <_>
      <rect>
        4 20 8 8 11</rect></_>
    <_>
      <rect>
        4 20 8 8 14</rect></_>
    <_>
      <rect>
        4 20 8 8 17</rect></_>
    <_>
      <rect>
        4 20 8 8 18</rect></_>
    <_>
      <rect>
        4 20 8 8 23</rect></_>
    <_>
      <rect>
        8 0 8 8 3</rect></_>
    <_>
      <rect>
        8 0 8 8 17</rect></_>
    <_>
      <rect>
        8 4 8 8 6</rect></_>
    <_>
      <rect>
        8 4 8 8 17</rect></_>
    <_>
      <rect>
        8 8 8 8 9</rect></_>
    <_>
      <rect>
        8 8 8 8 28</rect></_>
    <_>
      <rect>
        8 12 8 8 24</rect></_>
    <_>
      <rect>
        8 12 8 8 34</rect></_>
    <_>
      <rect>
        8 16 8 8 30</rect></_>
    <_>
      <rect>
        8 20 8 8 2</rect></_>
    <_>
      <rect>
        8 20 8 8 15</rect></_>
    <_>
      <rect>
        8 20 8 8 29</rect></_>
    <_>
      <rect>
        8 20 8 8 31</rect></_>
    <_>
      <rect>
        12 0 8 8 25</rect></_>
    <_>
      <rect>
        12 4 8 8 0</rect></_>
    <_>
      <rect>
        12 8 8 8 15</rect></_>
    <_>
      <rect>
        12 8 8 8 22</rect></_>
    <_>
      <rect>
        12 8 8 8 29</rect></_>
    <_>
      <rect>
        12 8 8 8 33</rect></_>
    <_>
      <rect>
        12 8 8 8 34</rect></_>
    <_>
      <rect>
        12 12 8 8 0</rect></_>
    <_>
      <rect>
        12 12 8 8 1</rect></_>
    <_>
      <rect>
        12 12 8 8 10</rect></_>
    <_>
      <rect>
        12 12 8 8 13</rect></_>
    <_>
      <rect>
        12 12 8 8 14</rect></_>
    <_>
      <rect>
        12 12 8 8 16</rect></_>
    <_>
      <rect>
        12 12 8 8 33</rect></_>
    <_>
      <rect>
        12 16 8 8 12</rect></_>
    <_>
      <rect>
        12 16 8 8 13</rect></_>
    <_>
      <rect>
        12 16 8 8 19</rect></_>
    <_>
      <rect>
        12 16 8 8 23</rect></_>
    <_>
      <rect>
        12 16 8 8 35</rect></_>
    <_>
      <rect>
        12 20 8 8 26</rect></_>
    <_>
      <rect>
        12 20 8 8 28</rect></_>
    <_>
      <rect>
        12 20 8 8 35</rect></_>
    <_>
      <rect>
        16 0 8 8 0</rect></_>
    <_>
      <rect>
        16 0 8 8 9</rect></_>
    <_>
      <rect>
        16 0 8 8 10</rect></_>
    <_>
      <rect>
        16 0 8 8 15</rect></_>
    <_>
      <rect>
        16 0 8 8 16</rect></_>
    <_>
      <rect>
        16 0 8 8 34</rect></_>
    <_>
      <rect>
        16 4 8 8 11</rect></_>
    <_>
      <rect>
        16 4 8 8 12</rect></_>
    <_>
      <rect>
        16 4 8 8 13</rect></_>
    <_>
      <rect>
        16 4 8 8 28</rect></_>
    <_>
      <rect>
        16 4 8 8 34</rect></_>
    <_>
      <rect>
        16 8 8 8 27</rect></_>
    <_>
      <rect>
        16 8 8 8 32</rect></_>
    <_>
      <rect>
        16 12 8 8 20</rect></_>
    <_>
      <rect>
        16 12 8 8 35</rect></_>
    <_>
      <rect>
        16 16 8 8 6</rect></_>
    <_>
      <rect>
        16 16 8 8 12</rect></_>
    <_>
      <rect>
        16 16 8 8 17</rect></_>
    <_>
      <rect>
        16 16 8 8 26</rect></_>
    <_>
      <rect>
        16 16 8 8 28</rect></_>
    <_>
      <rect>
        16 16 8 8 33</rect></_>
    <_>
      <rect>
        16 20 8 8 1</rect></_>
    <_>
      <rect>
        16 20 8 8 17</rect></_>
    <_>
      <rect>
        16 20 8 8 18</rect></_>
    <_>
      <rect>
        16 20 8 8 22</rect></_>
    <_>
      <rect>
        16 20 8 8 27</rect></_>
    <_>
      <rect>
        16 20 8 8 28</rect></_>
    <_>
      <rect>
        16 20 8 8 35</rect></_>
    <_>
      <rect>
        0 0 8 16 1</rect></_>
    <_>
      <rect>
        0 0 8 16 5</rect></_>
    <_>
      <rect>
        0 0 8 16 12</rect></_>
    <_>
      <rect>
        0 0 8 16 14</rect></_>
    <_>
      <rect>
        0 0 8 16 21</rect></_>
    <_>
      <rect>
        0 0 8 16 33</rect></_>
    <_>
      <rect>
        0 4 8 16 1</rect></_>
    <_>
      <rect>
        0 4 8 16 3</rect></_>
    <_>
      <rect>
        0 4 8 16 8</rect></_>
    <_>
      <rect>
        0 4 8 16 22</rect></_>
    <_>
      <rect>
        0 4 8 16 33</rect></_>
    <_>
      <rect>
        0 4 8 16 35</rect></_>
    <_>
      <rect>
        4 0 8 16 5</rect></_>
    <_>
      <rect>
        4 0 8 16 21</rect></_>
    <_>
      <rect>
        4 4 8 16 4</rect></_>
    <_>
      <rect>
        4 4 8 16 7</rect></_>
    <_>
      <rect>
        8 0 8 16 14</rect></_>
    <_>
      <rect>
        8 4 8 16 2</rect></_>
    <_>
      <rect>
        8 4 8 16 12</rect></_>
    <_>
      <rect>
        12 0 8 16 14</rect></_>
    <_>
      <rect>
        12 0 8 16 17</rect></_>
    <_>
      <rect>
        12 0 8 16 32</rect></_>
    <_>
      <rect>
        12 0 8 16 35</rect></_>
    <_>
      <rect>
        12 4 8 16 10</rect></_>
    <_>
      <rect>
        12 4 8 16 11</rect></_>
    <_>
      <rect>
        12 4 8 16 12</rect></_>
    <_>
      <rect>
        12 4 8 16 13</rect></_>
    <_>
      <rect>
        12 4 8 16 20</rect></_>
    <_>
      <rect>
        12 4 8 16 22</rect></_>
    <_>
      <rect>
        12 4 8 16 27</rect></_>
    <_>
      <rect>
        12 4 8 16 28</rect></_>
    <_>
      <rect>
        16 0 8 16 15</rect></_>
    <_>
      <rect>
        16 0 8 16 16</rect></_>
    <_>
      <rect>
        16 0 8 16 18</rect></_>
    <_>
      <rect>
        16 0 8 16 19</rect></_>
    <_>
      <rect>
        16 0 8 16 21</rect></_>
    <_>
      <rect>
        16 0 8 16 34</rect></_>
    <_>
      <rect>
        16 4 8 16 3</rect></_>
    <_>
      <rect>
        16 4 8 16 12</rect></_>
    <_>
      <rect>
        16 4 8 16 17</rect></_>
    <_>
      <rect>
        16 4 8 16 26</rect></_>
    <_>
      <rect>
        16 4 8 16 28</rect></_>
    <_>
      <rect>
        16 4 8 16 35</rect></_>
    <_>
      <rect>
        0 0 16 8 0</rect></_>
    <_>
      <rect>
        0 0 16 8 2</rect></_>
    <_>
      <rect>
        0 0 16 8 3</rect></_>
    <_>
      <rect>
        0 0 16 8 4</rect></_>
    <_>
      <rect>
        0 0 16 8 13</rect></_>
    <_>
      <rect>
        0 0 16 8 15</rect></_>
    <_>
      <rect>
        0 0 16 8 16</rect></_>
    <_>
      <rect>
        0 0 16 8 20</rect></_>
    <_>
      <rect>
        0 0 16 8 21</rect></_>
    <_>
      <rect>
        0 0 16 8 22</rect></_>
    <_>
      <rect>
        0 0 16 8 28</rect></_>
    <_>
      <rect>
        0 0 16 8 32</rect></_>
    <_>
      <rect>
        0 0 16 8 34</rect></_>
    <_>
      <rect>
        0 4 16 8 2</rect></_>
    <_>
      <rect>
        0 4 16 8 3</rect></_>
    <_>
      <rect>
        0 4 16 8 4</rect></_>
    <_>
      <rect>
        0 4 16 8 6</rect></_>
    <_>
      <rect>
        0 4 16 8 8</rect></_>
    <_>
      <rect>
        0 4 16 8 11</rect></_>
    <_>
      <rect>
        0 8 16 8 16</rect></_>
    <_>
      <rect>
        0 8 16 8 22</rect></_>
    <_>
      <rect>
        0 8 16 8 28</rect></_>
    <_>
      <rect>
        0 8 16 8 30</rect></_>
    <_>
      <rect>
        0 8 16 8 35</rect></_>
    <_>
      <rect>
        0 12 16 8 18</rect></_>
    <_>
      <rect>
        0 12 16 8 24</rect></_>
    <_>
      <rect>
        0 16 16 8 9</rect></_>
    <_>
      <rect>
        0 16 16 8 34</rect></_>
    <_>
      <rect>
        0 20 16 8 16</rect></_>
    <_>
      <rect>
        0 20 16 8 21</rect></_>
    <_>
      <rect>
        0 20 16 8 28</rect></_>
    <_>
      <rect>
        0 20 16 8 31</rect></_>
    <_>
      <rect>
        0 20 16 8 32</rect></_>
    <_>
      <rect>
        0 20 16 8 34</rect></_>
    <_>
      <rect>
        0 0 16 16 0</rect></_>
    <_>
      <rect>
        0 0 16 16 3</rect></_>
    <_>
      <rect>
        0 0 16 16 6</rect></_>
    <_>
      <rect>
        0 0 16 16 16</rect></_>
    <_>
      <rect>
        0 0 16 16 17</rect></_>
    <_>
      <rect>
        0 0 16 16 18</rect></_>
    <_>
      <rect>
        0 0 16 16 26</rect></_>
    <_>
      <rect>
        0 0 16 16 35</rect></_>
    <_>
      <rect>
        0 4 16 16 4</rect></_>
    <_>
      <rect>
        0 4 16 16 5</rect></_>
    <_>
      <rect>
        0 4 16 16 10</rect></_>
    <_>
      <rect>
        0 4 16 16 11</rect></_>
    <_>
      <rect>
        0 4 16 16 13</rect></_>
    <_>
      <rect>
        0 4 16 16 24</rect></_>
    <_>
      <rect>
        0 4 16 16 26</rect></_>
    <_>
      <rect>
        0 4 16 16 35</rect></_></features></cascade>
</opencv_storage>
