<?xml version="1.0"?>
<opencv_storage>
<!-- Created using Computer Vision Toolbox(tm) for MATLAB(R) -->
<!-- Version 9.8.0.1323502 (R2020a) -->
<!-- Compatible with OpenCV 3.4 -->
<cascade>
  <stageType>BOOST</stageType>
  <featureType>HOG</featureType>
  <height>34</height>
  <width>32</width>
  <stageParams>
    <boostType>GAB</boostType>
    <minHitRate>9.9500000476837158e-01</minHitRate>
    <maxFalseAlarm>3.0000001192092896e-01</maxFalseAlarm>
    <weightTrimRate>9.4999999999999996e-01</weightTrimRate>
    <maxDepth>1</maxDepth>
    <maxWeakCount>100</maxWeakCount></stageParams>
  <featureParams>
    <maxCatCount>0</maxCatCount>
    <featSize>36</featSize></featureParams>
  <stageNum>6</stageNum>
  <stages>
    <!-- stage 0 -->
    <_>
      <maxWeakCount>6</maxWeakCount>
      <stageThreshold>-1.6683391332626343e+00</stageThreshold>
      <weakClassifiers>
        <_>
          <internalNodes>
            0 -1 31 4.3681830167770386e-02</internalNodes>
          <leafValues>
            -8.3758264780044556e-01 6.6666668653488159e-01</leafValues></_>
        <_>
          <internalNodes>
            0 -1 41 2.9089489951729774e-02</internalNodes>
          <leafValues>
            -7.2545272111892700e-01 5.2072566747665405e-01</leafValues></_>
        <_>
          <internalNodes>
            0 -1 29 7.8323325142264366e-03</internalNodes>
          <leafValues>
            4.3874686956405640e-01 -8.5522484779357910e-01</leafValues></_>
        <_>
          <internalNodes>
            0 -1 39 2.2325230762362480e-02</internalNodes>
          <leafValues>
            -8.5821276903152466e-01 2.9434296488761902e-01</leafValues></_>
        <_>
          <internalNodes>
            0 -1 35 3.1088555231690407e-02</internalNodes>
          <leafValues>
            -5.2298188209533691e-01 5.8696782588958740e-01</leafValues></_>
        <_>
          <internalNodes>
            0 -1 9 2.6611402630805969e-02</internalNodes>
          <leafValues>
            -6.1931198835372925e-01 4.5650184154510498e-01</leafValues></_></weakClassifiers></_>
    <!-- stage 1 -->
    <_>
      <maxWeakCount>7</maxWeakCount>
      <stageThreshold>-1.2449297904968262e+00</stageThreshold>
      <weakClassifiers>
        <_>
          <internalNodes>
            0 -1 4 3.2455589622259140e-02</internalNodes>
          <leafValues>
            -8.2673794031143188e-01 3.6778116226196289e-01</leafValues></_>
        <_>
          <internalNodes>
            0 -1 43 2.2636147215962410e-02</internalNodes>
          <leafValues>
            -7.3691391944885254e-01 4.5528236031532288e-01</leafValues></_>
        <_>
          <internalNodes>
            0 -1 40 9.7499461844563484e-04</internalNodes>
          <leafValues>
            7.8741687536239624e-01 -4.1840428113937378e-01</leafValues></_>
        <_>
          <internalNodes>
            0 -1 47 1.1726154014468193e-02</internalNodes>
          <leafValues>
            -7.1389085054397583e-01 3.9605236053466797e-01</leafValues></_>
        <_>
          <internalNodes>
            0 -1 11 2.9161073267459869e-02</internalNodes>
          <leafValues>
            -5.7582169771194458e-01 4.9911186099052429e-01</leafValues></_>
        <_>
          <internalNodes>
            0 -1 50 1.4944771304726601e-02</internalNodes>
          <leafValues>
            -8.1169998645782471e-01 2.4765720963478088e-01</leafValues></_>
        <_>
          <internalNodes>
            0 -1 10 1.7485937569290400e-03</internalNodes>
          <leafValues>
            6.3205891847610474e-01 -4.0569508075714111e-01</leafValues></_></weakClassifiers></_>
    <!-- stage 2 -->
    <_>
      <maxWeakCount>8</maxWeakCount>
      <stageThreshold>-1.3421059846878052e+00</stageThreshold>
      <weakClassifiers>
        <_>
          <internalNodes>
            0 -1 2 1.5101083554327488e-03</internalNodes>
          <leafValues>
            5.8834952116012573e-01 -7.7365493774414063e-01</leafValues></_>
        <_>
          <internalNodes>
            0 -1 33 4.5241914689540863e-02</internalNodes>
          <leafValues>
            -5.8946996927261353e-01 4.4189575314521790e-01</leafValues></_>
        <_>
          <internalNodes>
            0 -1 52 1.9989639520645142e-02</internalNodes>
          <leafValues>
            -6.2790691852569580e-01 3.7069496512413025e-01</leafValues></_>
        <_>
          <internalNodes>
            0 -1 15 4.1357129812240601e-02</internalNodes>
          <leafValues>
            -7.1647989749908447e-01 3.9454811811447144e-01</leafValues></_>
        <_>
          <internalNodes>
            0 -1 45 1.1560479179024696e-02</internalNodes>
          <leafValues>
            -9.1520828008651733e-01 2.2851367294788361e-01</leafValues></_>
        <_>
          <internalNodes>
            0 -1 27 4.0555596351623535e-03</internalNodes>
          <leafValues>
            5.1198238134384155e-01 -5.4011428356170654e-01</leafValues></_>
        <_>
          <internalNodes>
            0 -1 5 4.7997027635574341e-02</internalNodes>
          <leafValues>
            -5.1137334108352661e-01 4.3288812041282654e-01</leafValues></_>
        <_>
          <internalNodes>
            0 -1 7 1.0519754141569138e-02</internalNodes>
          <leafValues>
            2.4551627039909363e-01 -6.2837040424346924e-01</leafValues></_></weakClassifiers></_>
    <!-- stage 3 -->
    <_>
      <maxWeakCount>9</maxWeakCount>
      <stageThreshold>-1.4542976617813110e+00</stageThreshold>
      <weakClassifiers>
        <_>
          <internalNodes>
            0 -1 16 5.6291464716196060e-02</internalNodes>
          <leafValues>
            -7.0705246925354004e-01 5.1540040969848633e-01</leafValues></_>
        <_>
          <internalNodes>
            0 -1 25 3.2063901424407959e-02</internalNodes>
          <leafValues>
            -6.7505508661270142e-01 4.8146697878837585e-01</leafValues></_>
        <_>
          <internalNodes>
            0 -1 14 4.5365825295448303e-02</internalNodes>
          <leafValues>
            -6.4038389921188354e-01 4.4974911212921143e-01</leafValues></_>
        <_>
          <internalNodes>
            0 -1 36 2.7562722563743591e-02</internalNodes>
          <leafValues>
            -4.9773880839347839e-01 4.2556977272033691e-01</leafValues></_>
        <_>
          <internalNodes>
            0 -1 18 4.4614239595830441e-03</internalNodes>
          <leafValues>
            4.2038291692733765e-01 -4.5800721645355225e-01</leafValues></_>
        <_>
          <internalNodes>
            0 -1 24 5.7453066110610962e-02</internalNodes>
          <leafValues>
            -3.8642060756683350e-01 4.6563228964805603e-01</leafValues></_>
        <_>
          <internalNodes>
            0 -1 51 2.4691581726074219e-02</internalNodes>
          <leafValues>
            -4.3984439969062805e-01 3.8146501779556274e-01</leafValues></_>
        <_>
          <internalNodes>
            0 -1 49 1.4061322435736656e-02</internalNodes>
          <leafValues>
            -4.8306056857109070e-01 2.9328912496566772e-01</leafValues></_>
        <_>
          <internalNodes>
            0 -1 12 1.3706462457776070e-02</internalNodes>
          <leafValues>
            -7.1675544977188110e-01 2.1025721728801727e-01</leafValues></_></weakClassifiers></_>
    <!-- stage 4 -->
    <_>
      <maxWeakCount>16</maxWeakCount>
      <stageThreshold>-1.4372894763946533e+00</stageThreshold>
      <weakClassifiers>
        <_>
          <internalNodes>
            0 -1 28 1.7967501189559698e-03</internalNodes>
          <leafValues>
            4.4404330849647522e-01 -7.1490752696990967e-01</leafValues></_>
        <_>
          <internalNodes>
            0 -1 11 5.8183059096336365e-02</internalNodes>
          <leafValues>
            -4.0473920106887817e-01 4.4358846545219421e-01</leafValues></_>
        <_>
          <internalNodes>
            0 -1 34 4.9884639680385590e-02</internalNodes>
          <leafValues>
            -3.3644169569015503e-01 5.6721854209899902e-01</leafValues></_>
        <_>
          <internalNodes>
            0 -1 30 9.9157039076089859e-03</internalNodes>
          <leafValues>
            -8.4015327692031860e-01 2.1112190186977386e-01</leafValues></_>
        <_>
          <internalNodes>
            0 -1 42 8.1049781292676926e-03</internalNodes>
          <leafValues>
            2.1406032145023346e-01 -6.8437373638153076e-01</leafValues></_>
        <_>
          <internalNodes>
            0 -1 19 2.7466970495879650e-03</internalNodes>
          <leafValues>
            -9.4266849756240845e-01 1.4569199085235596e-01</leafValues></_>
        <_>
          <internalNodes>
            0 -1 4 2.3666471242904663e-02</internalNodes>
          <leafValues>
            -6.0636329650878906e-01 1.6763456165790558e-01</leafValues></_>
        <_>
          <internalNodes>
            0 -1 26 3.2228536903858185e-02</internalNodes>
          <leafValues>
            -3.7325796484947205e-01 3.7238451838493347e-01</leafValues></_>
        <_>
          <internalNodes>
            0 -1 46 1.5478421002626419e-02</internalNodes>
          <leafValues>
            -4.9271523952484131e-01 2.3641733825206757e-01</leafValues></_>
        <_>
          <internalNodes>
            0 -1 38 9.1857835650444031e-03</internalNodes>
          <leafValues>
            -7.1082502603530884e-01 1.4628708362579346e-01</leafValues></_>
        <_>
          <internalNodes>
            0 -1 17 4.6079172752797604e-03</internalNodes>
          <leafValues>
            3.3813402056694031e-01 -3.6115401983261108e-01</leafValues></_>
        <_>
          <internalNodes>
            0 -1 0 1.0953756049275398e-02</internalNodes>
          <leafValues>
            -6.7897498607635498e-01 1.4187216758728027e-01</leafValues></_>
        <_>
          <internalNodes>
            0 -1 44 2.7054389938712120e-02</internalNodes>
          <leafValues>
            -4.5781308412551880e-01 2.2618931531906128e-01</leafValues></_>
        <_>
          <internalNodes>
            0 -1 8 1.8918424844741821e-02</internalNodes>
          <leafValues>
            -5.6082308292388916e-01 1.7871536314487457e-01</leafValues></_>
        <_>
          <internalNodes>
            0 -1 31 6.0087405145168304e-02</internalNodes>
          <leafValues>
            -2.9265049099922180e-01 3.7787702679634094e-01</leafValues></_>
        <_>
          <internalNodes>
            0 -1 37 3.7541103083640337e-03</internalNodes>
          <leafValues>
            3.5654258728027344e-01 -3.2337680459022522e-01</leafValues></_></weakClassifiers></_>
    <!-- stage 5 -->
    <_>
      <maxWeakCount>15</maxWeakCount>
      <stageThreshold>-5.5565500259399414e-01</stageThreshold>
      <weakClassifiers>
        <_>
          <internalNodes>
            0 -1 1 3.6053038202226162e-03</internalNodes>
          <leafValues>
            7.9653680324554443e-01 -3.1764706969261169e-01</leafValues></_>
        <_>
          <internalNodes>
            0 -1 32 5.1716016605496407e-03</internalNodes>
          <leafValues>
            -8.9536786079406738e-01 2.9824012517929077e-01</leafValues></_>
        <_>
          <internalNodes>
            0 -1 23 4.0690131485462189e-02</internalNodes>
          <leafValues>
            -3.1299954652786255e-01 6.5774792432785034e-01</leafValues></_>
        <_>
          <internalNodes>
            0 -1 25 6.1922445893287659e-02</internalNodes>
          <leafValues>
            -3.6849507689476013e-01 4.5535072684288025e-01</leafValues></_>
        <_>
          <internalNodes>
            0 -1 36 4.9549695104360580e-02</internalNodes>
          <leafValues>
            -2.7924630045890808e-01 4.9129471182823181e-01</leafValues></_>
        <_>
          <internalNodes>
            0 -1 22 2.8416590765118599e-02</internalNodes>
          <leafValues>
            -4.3131047487258911e-01 3.1266179680824280e-01</leafValues></_>
        <_>
          <internalNodes>
            0 -1 47 1.8302261829376221e-02</internalNodes>
          <leafValues>
            -5.1152610778808594e-01 2.6532104611396790e-01</leafValues></_>
        <_>
          <internalNodes>
            0 -1 6 2.6685688644647598e-02</internalNodes>
          <leafValues>
            2.6051995158195496e-01 -4.6017956733703613e-01</leafValues></_>
        <_>
          <internalNodes>
            0 -1 48 8.1002945080399513e-03</internalNodes>
          <leafValues>
            -8.5877287387847900e-01 1.2796118855476379e-01</leafValues></_>
        <_>
          <internalNodes>
            0 -1 33 1.1623258888721466e-01</internalNodes>
          <leafValues>
            -2.5466823577880859e-01 5.2383422851562500e-01</leafValues></_>
        <_>
          <internalNodes>
            0 -1 3 3.8291092496365309e-03</internalNodes>
          <leafValues>
            -7.9470151662826538e-01 1.7638288438320160e-01</leafValues></_>
        <_>
          <internalNodes>
            0 -1 21 1.6209460794925690e-02</internalNodes>
          <leafValues>
            -5.6720757484436035e-01 2.4164429306983948e-01</leafValues></_>
        <_>
          <internalNodes>
            0 -1 37 7.6259374618530273e-03</internalNodes>
          <leafValues>
            2.4319395422935486e-01 -5.2519756555557251e-01</leafValues></_>
        <_>
          <internalNodes>
            0 -1 13 1.2071621604263783e-02</internalNodes>
          <leafValues>
            -7.4646353721618652e-01 1.5839780867099762e-01</leafValues></_>
        <_>
          <internalNodes>
            0 -1 20 1.2351751327514648e-01</internalNodes>
          <leafValues>
            -1.4371119439601898e-01 8.8542705774307251e-01</leafValues></_></weakClassifiers></_></stages>
  <features>
    <_>
      <rect>
        0 12 8 8 25</rect></_>
    <_>
      <rect>
        0 12 8 8 32</rect></_>
    <_>
      <rect>
        0 12 8 8 33</rect></_>
    <_>
      <rect>
        0 16 8 8 2</rect></_>
    <_>
      <rect>
        0 16 8 8 8</rect></_>
    <_>
      <rect>
        0 16 8 8 24</rect></_>
    <_>
      <rect>
        0 16 8 8 30</rect></_>
    <_>
      <rect>
        0 16 8 8 35</rect></_>
    <_>
      <rect>
        4 0 8 8 21</rect></_>
    <_>
      <rect>
        4 12 8 8 3</rect></_>
    <_>
      <rect>
        4 12 8 8 27</rect></_>
    <_>
      <rect>
        4 16 8 8 23</rect></_>
    <_>
      <rect>
        8 0 8 8 21</rect></_>
    <_>
      <rect>
        8 8 8 8 31</rect></_>
    <_>
      <rect>
        8 12 8 8 3</rect></_>
    <_>
      <rect>
        8 12 8 8 13</rect></_>
    <_>
      <rect>
        8 12 8 8 14</rect></_>
    <_>
      <rect>
        8 12 8 8 25</rect></_>
    <_>
      <rect>
        8 12 8 8 35</rect></_>
    <_>
      <rect>
        8 16 8 8 21</rect></_>
    <_>
      <rect>
        8 16 8 8 23</rect></_>
    <_>
      <rect>
        12 4 8 8 15</rect></_>
    <_>
      <rect>
        12 8 8 8 12</rect></_>
    <_>
      <rect>
        12 16 8 8 14</rect></_>
    <_>
      <rect>
        12 16 8 8 28</rect></_>
    <_>
      <rect>
        12 16 8 8 29</rect></_>
    <_>
      <rect>
        16 0 8 8 16</rect></_>
    <_>
      <rect>
        16 12 8 8 18</rect></_>
    <_>
      <rect>
        16 12 8 8 19</rect></_>
    <_>
      <rect>
        16 12 8 8 26</rect></_>
    <_>
      <rect>
        16 12 8 8 35</rect></_>
    <_>
      <rect>
        16 16 8 8 17</rect></_>
    <_>
      <rect>
        16 16 8 8 21</rect></_>
    <_>
      <rect>
        16 16 8 8 28</rect></_>
    <_>
      <rect>
        0 0 8 16 0</rect></_>
    <_>
      <rect>
        0 0 8 16 8</rect></_>
    <_>
      <rect>
        0 0 8 16 25</rect></_>
    <_>
      <rect>
        0 0 8 16 27</rect></_>
    <_>
      <rect>
        8 0 8 16 10</rect></_>
    <_>
      <rect>
        8 0 8 16 12</rect></_>
    <_>
      <rect>
        12 0 8 16 26</rect></_>
    <_>
      <rect>
        16 0 8 16 16</rect></_>
    <_>
      <rect>
        16 0 8 16 26</rect></_>
    <_>
      <rect>
        16 0 8 16 27</rect></_>
    <_>
      <rect>
        16 0 8 16 28</rect></_>
    <_>
      <rect>
        16 0 8 16 35</rect></_>
    <_>
      <rect>
        0 0 16 8 23</rect></_>
    <_>
      <rect>
        0 0 16 8 34</rect></_>
    <_>
      <rect>
        0 4 16 8 0</rect></_>
    <_>
      <rect>
        0 8 16 8 6</rect></_>
    <_>
      <rect>
        0 0 16 16 0</rect></_>
    <_>
      <rect>
        0 0 16 16 15</rect></_>
    <_>
      <rect>
        0 0 16 16 17</rect></_></features></cascade>
</opencv_storage>
