<?xml version="1.0"?>
<opencv_storage>
<!-- Created using Computer Vision Toolbox(tm) for MATLAB(R) -->
<!-- Version 9.8.0.1323502 (R2020a) -->
<!-- Compatible with OpenCV 3.4 -->
<cascade>
  <stageType>BOOST</stageType>
  <featureType>HOG</featureType>
  <height>34</height>
  <width>32</width>
  <stageParams>
    <boostType>GAB</boostType>
    <minHitRate>9.9500000476837158e-01</minHitRate>
    <maxFalseAlarm>5.0000000000000000e-01</maxFalseAlarm>
    <weightTrimRate>9.4999999999999996e-01</weightTrimRate>
    <maxDepth>1</maxDepth>
    <maxWeakCount>100</maxWeakCount></stageParams>
  <featureParams>
    <maxCatCount>0</maxCatCount>
    <featSize>36</featSize></featureParams>
  <stageNum>11</stageNum>
  <stages>
    <!-- stage 0 -->
    <_>
      <maxWeakCount>4</maxWeakCount>
      <stageThreshold>-1.7652773857116699e+00</stageThreshold>
      <weakClassifiers>
        <_>
          <internalNodes>
            0 -1 37 4.3681830167770386e-02</internalNodes>
          <leafValues>
            -8.4795320034027100e-01 6.6666668653488159e-01</leafValues></_>
        <_>
          <internalNodes>
            0 -1 47 2.9089489951729774e-02</internalNodes>
          <leafValues>
            -7.3990660905838013e-01 5.1253157854080200e-01</leafValues></_>
        <_>
          <internalNodes>
            0 -1 49 7.2103524580597878e-03</internalNodes>
          <leafValues>
            4.8419541120529175e-01 -8.3801543712615967e-01</leafValues></_>
        <_>
          <internalNodes>
            0 -1 42 2.3060737177729607e-02</internalNodes>
          <leafValues>
            -6.6161298751831055e-01 4.7602519392967224e-01</leafValues></_></weakClassifiers></_>
    <!-- stage 1 -->
    <_>
      <maxWeakCount>3</maxWeakCount>
      <stageThreshold>-1.1350443363189697e+00</stageThreshold>
      <weakClassifiers>
        <_>
          <internalNodes>
            0 -1 51 2.7683047577738762e-02</internalNodes>
          <leafValues>
            -8.4326016902923584e-01 4.8408710956573486e-01</leafValues></_>
        <_>
          <internalNodes>
            0 -1 7 2.8934279456734657e-02</internalNodes>
          <leafValues>
            -7.6898258924484253e-01 5.2602106332778931e-01</leafValues></_>
        <_>
          <internalNodes>
            0 -1 47 2.3397482931613922e-02</internalNodes>
          <leafValues>
            -8.0322116613388062e-01 4.7719845175743103e-01</leafValues></_></weakClassifiers></_>
    <!-- stage 2 -->
    <_>
      <maxWeakCount>5</maxWeakCount>
      <stageThreshold>-1.2453684806823730e+00</stageThreshold>
      <weakClassifiers>
        <_>
          <internalNodes>
            0 -1 6 1.6616871580481529e-03</internalNodes>
          <leafValues>
            4.9285712838172913e-01 -7.9879277944564819e-01</leafValues></_>
        <_>
          <internalNodes>
            0 -1 41 3.1622335314750671e-02</internalNodes>
          <leafValues>
            -6.6101241111755371e-01 4.5010009407997131e-01</leafValues></_>
        <_>
          <internalNodes>
            0 -1 33 1.9629085436463356e-03</internalNodes>
          <leafValues>
            6.4745789766311646e-01 -4.8000848293304443e-01</leafValues></_>
        <_>
          <internalNodes>
            0 -1 48 2.4305000901222229e-02</internalNodes>
          <leafValues>
            -6.6046315431594849e-01 4.7089818120002747e-01</leafValues></_>
        <_>
          <internalNodes>
            0 -1 52 1.0659492574632168e-02</internalNodes>
          <leafValues>
            -9.0391939878463745e-01 3.1219673156738281e-01</leafValues></_></weakClassifiers></_>
    <!-- stage 3 -->
    <_>
      <maxWeakCount>5</maxWeakCount>
      <stageThreshold>-1.4467941522598267e+00</stageThreshold>
      <weakClassifiers>
        <_>
          <internalNodes>
            0 -1 4 1.5281768282875419e-03</internalNodes>
          <leafValues>
            4.9816849827766418e-01 -7.8373014926910400e-01</leafValues></_>
        <_>
          <internalNodes>
            0 -1 54 1.6093865036964417e-02</internalNodes>
          <leafValues>
            -8.1482023000717163e-01 2.5556120276451111e-01</leafValues></_>
        <_>
          <internalNodes>
            0 -1 50 2.2067848592996597e-02</internalNodes>
          <leafValues>
            -7.0383894443511963e-01 3.6010062694549561e-01</leafValues></_>
        <_>
          <internalNodes>
            0 -1 45 3.2652125228196383e-03</internalNodes>
          <leafValues>
            5.5519688129425049e-01 -4.7317287325859070e-01</leafValues></_>
        <_>
          <internalNodes>
            0 -1 51 1.1628303676843643e-02</internalNodes>
          <leafValues>
            -9.1932547092437744e-01 2.6482847332954407e-01</leafValues></_></weakClassifiers></_>
    <!-- stage 4 -->
    <_>
      <maxWeakCount>5</maxWeakCount>
      <stageThreshold>-1.2674202919006348e+00</stageThreshold>
      <weakClassifiers>
        <_>
          <internalNodes>
            0 -1 20 4.8229530453681946e-02</internalNodes>
          <leafValues>
            -7.6315790414810181e-01 6.0000002384185791e-01</leafValues></_>
        <_>
          <internalNodes>
            0 -1 27 3.9520893245935440e-02</internalNodes>
          <leafValues>
            -6.2421816587448120e-01 5.5719465017318726e-01</leafValues></_>
        <_>
          <internalNodes>
            0 -1 34 2.6493747718632221e-03</internalNodes>
          <leafValues>
            5.8005958795547485e-01 -6.0701447725296021e-01</leafValues></_>
        <_>
          <internalNodes>
            0 -1 44 1.3710435479879379e-02</internalNodes>
          <leafValues>
            -8.0091440677642822e-01 3.6579266190528870e-01</leafValues></_>
        <_>
          <internalNodes>
            0 -1 17 2.9615961015224457e-02</internalNodes>
          <leafValues>
            -6.6977900266647339e-01 3.6117759346961975e-01</leafValues></_></weakClassifiers></_>
    <!-- stage 5 -->
    <_>
      <maxWeakCount>8</maxWeakCount>
      <stageThreshold>-1.7813875675201416e+00</stageThreshold>
      <weakClassifiers>
        <_>
          <internalNodes>
            0 -1 46 2.9920488595962524e-03</internalNodes>
          <leafValues>
            4.0791738033294678e-01 -7.7595067024230957e-01</leafValues></_>
        <_>
          <internalNodes>
            0 -1 14 5.7775370776653290e-02</internalNodes>
          <leafValues>
            -4.4155514240264893e-01 6.8279653787612915e-01</leafValues></_>
        <_>
          <internalNodes>
            0 -1 16 4.9914285540580750e-02</internalNodes>
          <leafValues>
            -4.1784915328025818e-01 6.1178672313690186e-01</leafValues></_>
        <_>
          <internalNodes>
            0 -1 19 5.2306905388832092e-02</internalNodes>
          <leafValues>
            -5.4505068063735962e-01 4.0505066514015198e-01</leafValues></_>
        <_>
          <internalNodes>
            0 -1 41 4.5240480452775955e-02</internalNodes>
          <leafValues>
            -4.1546279191970825e-01 4.7158145904541016e-01</leafValues></_>
        <_>
          <internalNodes>
            0 -1 11 5.4181544110178947e-03</internalNodes>
          <leafValues>
            -7.5681453943252563e-01 3.0481493473052979e-01</leafValues></_>
        <_>
          <internalNodes>
            0 -1 39 1.1546168476343155e-02</internalNodes>
          <leafValues>
            1.8147577345371246e-01 -8.7767302989959717e-01</leafValues></_>
        <_>
          <internalNodes>
            0 -1 42 2.6890242472290993e-02</internalNodes>
          <leafValues>
            -5.5885410308837891e-01 3.4642091393470764e-01</leafValues></_></weakClassifiers></_>
    <!-- stage 6 -->
    <_>
      <maxWeakCount>9</maxWeakCount>
      <stageThreshold>-1.8355915546417236e+00</stageThreshold>
      <weakClassifiers>
        <_>
          <internalNodes>
            0 -1 20 7.6998308300971985e-02</internalNodes>
          <leafValues>
            -6.4304459095001221e-01 5.2798050642013550e-01</leafValues></_>
        <_>
          <internalNodes>
            0 -1 17 4.6506687998771667e-02</internalNodes>
          <leafValues>
            -6.5222817659378052e-01 3.3934906125068665e-01</leafValues></_>
        <_>
          <internalNodes>
            0 -1 1 1.6945434734225273e-02</internalNodes>
          <leafValues>
            -6.8097555637359619e-01 3.0834940075874329e-01</leafValues></_>
        <_>
          <internalNodes>
            0 -1 32 1.6188344452530146e-03</internalNodes>
          <leafValues>
            5.1800864934921265e-01 -4.2132630944252014e-01</leafValues></_>
        <_>
          <internalNodes>
            0 -1 27 4.2275808751583099e-02</internalNodes>
          <leafValues>
            -5.1206904649734497e-01 4.0255910158157349e-01</leafValues></_>
        <_>
          <internalNodes>
            0 -1 29 3.4207321703433990e-02</internalNodes>
          <leafValues>
            -5.0911974906921387e-01 3.3865529298782349e-01</leafValues></_>
        <_>
          <internalNodes>
            0 -1 35 1.0011659935116768e-02</internalNodes>
          <leafValues>
            -9.5440649986267090e-01 1.9862133264541626e-01</leafValues></_>
        <_>
          <internalNodes>
            0 -1 18 2.1134134382009506e-02</internalNodes>
          <leafValues>
            -6.1484706401824951e-01 1.8359649181365967e-01</leafValues></_>
        <_>
          <internalNodes>
            0 -1 0 8.9027881622314453e-03</internalNodes>
          <leafValues>
            -7.4644160270690918e-01 1.6229760646820068e-01</leafValues></_></weakClassifiers></_>
    <!-- stage 7 -->
    <_>
      <maxWeakCount>7</maxWeakCount>
      <stageThreshold>-1.4923833608627319e+00</stageThreshold>
      <weakClassifiers>
        <_>
          <internalNodes>
            0 -1 4 1.9462665077298880e-03</internalNodes>
          <leafValues>
            5.0000000000000000e-01 -7.0030581951141357e-01</leafValues></_>
        <_>
          <internalNodes>
            0 -1 14 2.8132922947406769e-02</internalNodes>
          <leafValues>
            -5.5365037918090820e-01 3.5110497474670410e-01</leafValues></_>
        <_>
          <internalNodes>
            0 -1 13 7.7045135200023651e-02</internalNodes>
          <leafValues>
            -2.3533523082733154e-01 7.6442015171051025e-01</leafValues></_>
        <_>
          <internalNodes>
            0 -1 26 7.1757510304450989e-02</internalNodes>
          <leafValues>
            -3.3067443966865540e-01 4.6668609976768494e-01</leafValues></_>
        <_>
          <internalNodes>
            0 -1 7 3.5760968923568726e-02</internalNodes>
          <leafValues>
            -4.4933623075485229e-01 4.2175704240798950e-01</leafValues></_>
        <_>
          <internalNodes>
            0 -1 22 4.7456726431846619e-02</internalNodes>
          <leafValues>
            -4.6436300873756409e-01 3.6185526847839355e-01</leafValues></_>
        <_>
          <internalNodes>
            0 -1 10 8.8443085551261902e-03</internalNodes>
          <leafValues>
            -6.6545939445495605e-01 2.4152638018131256e-01</leafValues></_></weakClassifiers></_>
    <!-- stage 8 -->
    <_>
      <maxWeakCount>10</maxWeakCount>
      <stageThreshold>-8.8339161872863770e-01</stageThreshold>
      <weakClassifiers>
        <_>
          <internalNodes>
            0 -1 33 2.7983621694147587e-03</internalNodes>
          <leafValues>
            6.1302679777145386e-01 -4.4412606954574585e-01</leafValues></_>
        <_>
          <internalNodes>
            0 -1 8 1.9752342253923416e-02</internalNodes>
          <leafValues>
            -5.9087485074996948e-01 3.6225137114524841e-01</leafValues></_>
        <_>
          <internalNodes>
            0 -1 21 6.5551204606890678e-03</internalNodes>
          <leafValues>
            2.8365823626518250e-01 -5.9484839439392090e-01</leafValues></_>
        <_>
          <internalNodes>
            0 -1 36 1.1997492983937263e-02</internalNodes>
          <leafValues>
            -7.7276998758316040e-01 2.2805294394493103e-01</leafValues></_>
        <_>
          <internalNodes>
            0 -1 25 4.3295691721141338e-03</internalNodes>
          <leafValues>
            -9.0267765522003174e-01 1.3101375102996826e-01</leafValues></_>
        <_>
          <internalNodes>
            0 -1 2 1.7420738935470581e-02</internalNodes>
          <leafValues>
            3.3488610386848450e-01 -4.1563293337821960e-01</leafValues></_>
        <_>
          <internalNodes>
            0 -1 14 7.6273754239082336e-02</internalNodes>
          <leafValues>
            -2.9714345932006836e-01 5.3162485361099243e-01</leafValues></_>
        <_>
          <internalNodes>
            0 -1 9 1.4158094301819801e-02</internalNodes>
          <leafValues>
            -7.4799764156341553e-01 1.9902838766574860e-01</leafValues></_>
        <_>
          <internalNodes>
            0 -1 30 2.2066611796617508e-02</internalNodes>
          <leafValues>
            -7.5789558887481689e-01 1.5897203981876373e-01</leafValues></_>
        <_>
          <internalNodes>
            0 -1 12 1.2927341740578413e-03</internalNodes>
          <leafValues>
            -9.5252400636672974e-01 1.0786405205726624e-01</leafValues></_></weakClassifiers></_>
    <!-- stage 9 -->
    <_>
      <maxWeakCount>8</maxWeakCount>
      <stageThreshold>-7.4009948968887329e-01</stageThreshold>
      <weakClassifiers>
        <_>
          <internalNodes>
            0 -1 32 7.9386169090867043e-03</internalNodes>
          <leafValues>
            7.0639032125473022e-01 -5.3846156597137451e-01</leafValues></_>
        <_>
          <internalNodes>
            0 -1 42 3.5662543028593063e-02</internalNodes>
          <leafValues>
            -4.2141965031623840e-01 6.1981976032257080e-01</leafValues></_>
        <_>
          <internalNodes>
            0 -1 35 3.0082598328590393e-02</internalNodes>
          <leafValues>
            -5.5312317609786987e-01 4.3443369865417480e-01</leafValues></_>
        <_>
          <internalNodes>
            0 -1 11 1.6992004588246346e-02</internalNodes>
          <leafValues>
            -4.3460768461227417e-01 4.5551195740699768e-01</leafValues></_>
        <_>
          <internalNodes>
            0 -1 27 5.5619571357965469e-02</internalNodes>
          <leafValues>
            -3.8521325588226318e-01 4.4306507706642151e-01</leafValues></_>
        <_>
          <internalNodes>
            0 -1 24 5.7861108332872391e-02</internalNodes>
          <leafValues>
            -2.9657384753227234e-01 7.1077078580856323e-01</leafValues></_>
        <_>
          <internalNodes>
            0 -1 43 2.5178911164402962e-02</internalNodes>
          <leafValues>
            -4.9538820981979370e-01 3.8116711378097534e-01</leafValues></_>
        <_>
          <internalNodes>
            0 -1 23 1.7330104485154152e-02</internalNodes>
          <leafValues>
            -7.1456700563430786e-01 2.6328065991401672e-01</leafValues></_></weakClassifiers></_>
    <!-- stage 10 -->
    <_>
      <maxWeakCount>11</maxWeakCount>
      <stageThreshold>-4.4580233097076416e-01</stageThreshold>
      <weakClassifiers>
        <_>
          <internalNodes>
            0 -1 5 3.2911607995629311e-03</internalNodes>
          <leafValues>
            8.7083333730697632e-01 -7.9999998211860657e-02</leafValues></_>
        <_>
          <internalNodes>
            0 -1 40 1.3778484426438808e-02</internalNodes>
          <leafValues>
            -6.4848840236663818e-01 5.4219943284988403e-01</leafValues></_>
        <_>
          <internalNodes>
            0 -1 3 3.6353860050439835e-03</internalNodes>
          <leafValues>
            5.8490979671478271e-01 -4.2450743913650513e-01</leafValues></_>
        <_>
          <internalNodes>
            0 -1 0 2.2777842357754707e-02</internalNodes>
          <leafValues>
            -5.7684290409088135e-01 3.6069414019584656e-01</leafValues></_>
        <_>
          <internalNodes>
            0 -1 53 1.3323718681931496e-02</internalNodes>
          <leafValues>
            -7.0067739486694336e-01 2.6970988512039185e-01</leafValues></_>
        <_>
          <internalNodes>
            0 -1 44 5.0795421004295349e-02</internalNodes>
          <leafValues>
            -2.8142169117927551e-01 6.8957847356796265e-01</leafValues></_>
        <_>
          <internalNodes>
            0 -1 28 7.9018361866474152e-03</internalNodes>
          <leafValues>
            -7.6798182725906372e-01 2.0745880901813507e-01</leafValues></_>
        <_>
          <internalNodes>
            0 -1 31 1.1657697148621082e-02</internalNodes>
          <leafValues>
            -6.9307368993759155e-01 2.4010249972343445e-01</leafValues></_>
        <_>
          <internalNodes>
            0 -1 38 3.4792914986610413e-02</internalNodes>
          <leafValues>
            2.4870651960372925e-01 -5.8166861534118652e-01</leafValues></_>
        <_>
          <internalNodes>
            0 -1 15 2.0043883472681046e-02</internalNodes>
          <leafValues>
            3.7613889575004578e-01 -4.4103083014488220e-01</leafValues></_>
        <_>
          <internalNodes>
            0 -1 27 5.4253432899713516e-03</internalNodes>
          <leafValues>
            -9.6948444843292236e-01 1.4710047841072083e-01</leafValues></_></weakClassifiers></_></stages>
  <features>
    <_>
      <rect>
        0 0 8 8 0</rect></_>
    <_>
      <rect>
        0 12 8 8 25</rect></_>
    <_>
      <rect>
        0 12 8 8 31</rect></_>
    <_>
      <rect>
        0 12 8 8 32</rect></_>
    <_>
      <rect>
        0 12 8 8 33</rect></_>
    <_>
      <rect>
        0 12 8 8 34</rect></_>
    <_>
      <rect>
        0 12 8 8 35</rect></_>
    <_>
      <rect>
        0 16 8 8 8</rect></_>
    <_>
      <rect>
        0 16 8 8 24</rect></_>
    <_>
      <rect>
        4 8 8 8 3</rect></_>
    <_>
      <rect>
        4 8 8 8 9</rect></_>
    <_>
      <rect>
        4 8 8 8 16</rect></_>
    <_>
      <rect>
        4 12 8 8 21</rect></_>
    <_>
      <rect>
        4 16 8 8 2</rect></_>
    <_>
      <rect>
        4 16 8 8 23</rect></_>
    <_>
      <rect>
        8 4 8 8 29</rect></_>
    <_>
      <rect>
        8 12 8 8 2</rect></_>
    <_>
      <rect>
        8 12 8 8 3</rect></_>
    <_>
      <rect>
        8 12 8 8 12</rect></_>
    <_>
      <rect>
        8 12 8 8 13</rect></_>
    <_>
      <rect>
        8 12 8 8 14</rect></_>
    <_>
      <rect>
        8 12 8 8 26</rect></_>
    <_>
      <rect>
        8 16 8 8 13</rect></_>
    <_>
      <rect>
        12 8 8 8 12</rect></_>
    <_>
      <rect>
        12 16 8 8 14</rect></_>
    <_>
      <rect>
        12 16 8 8 21</rect></_>
    <_>
      <rect>
        12 16 8 8 28</rect></_>
    <_>
      <rect>
        12 16 8 8 29</rect></_>
    <_>
      <rect>
        16 0 8 8 15</rect></_>
    <_>
      <rect>
        16 0 8 8 16</rect></_>
    <_>
      <rect>
        16 12 8 8 4</rect></_>
    <_>
      <rect>
        16 12 8 8 9</rect></_>
    <_>
      <rect>
        16 12 8 8 18</rect></_>
    <_>
      <rect>
        16 12 8 8 19</rect></_>
    <_>
      <rect>
        16 12 8 8 26</rect></_>
    <_>
      <rect>
        16 12 8 8 35</rect></_>
    <_>
      <rect>
        16 16 8 8 9</rect></_>
    <_>
      <rect>
        16 16 8 8 17</rect></_>
    <_>
      <rect>
        16 16 8 8 22</rect></_>
    <_>
      <rect>
        16 16 8 8 26</rect></_>
    <_>
      <rect>
        16 16 8 8 27</rect></_>
    <_>
      <rect>
        16 16 8 8 28</rect></_>
    <_>
      <rect>
        0 0 8 16 0</rect></_>
    <_>
      <rect>
        0 0 8 16 24</rect></_>
    <_>
      <rect>
        0 0 8 16 25</rect></_>
    <_>
      <rect>
        0 0 8 16 27</rect></_>
    <_>
      <rect>
        0 0 8 16 35</rect></_>
    <_>
      <rect>
        16 0 8 16 16</rect></_>
    <_>
      <rect>
        16 0 8 16 17</rect></_>
    <_>
      <rect>
        16 0 8 16 26</rect></_>
    <_>
      <rect>
        16 0 8 16 28</rect></_>
    <_>
      <rect>
        16 0 8 16 35</rect></_>
    <_>
      <rect>
        0 8 16 8 12</rect></_>
    <_>
      <rect>
        0 8 16 8 14</rect></_>
    <_>
      <rect>
        0 0 16 16 0</rect></_></features></cascade>
</opencv_storage>
